{"learner":{"attributes":{"scikit_learn":"{\"_estimator_type\": \"classifier\"}"},"feature_names":["valence_std","arousal_mean","EIS_mean","EIS_std","arousal_mean_ma3"],"feature_types":["float","float","float","float","float"],"gradient_booster":{"model":{"gbtree_model_param":{"num_parallel_tree":"1","num_trees":"200"},"iteration_indptr":[0,1,2,3,4,5,6,7,8,9,10,11,12,13,14,15,16,17,18,19,20,21,22,23,24,25,26,27,28,29,30,31,32,33,34,35,36,37,38,39,40,41,42,43,44,45,46,47,48,49,50,51,52,53,54,55,56,57,58,59,60,61,62,63,64,65,66,67,68,69,70,71,72,73,74,75,76,77,78,79,80,81,82,83,84,85,86,87,88,89,90,91,92,93,94,95,96,97,98,99,100,101,102,103,104,105,106,107,108,109,110,111,112,113,114,115,116,117,118,119,120,121,122,123,124,125,126,127,128,129,130,131,132,133,134,135,136,137,138,139,140,141,142,143,144,145,146,147,148,149,150,151,152,153,154,155,156,157,158,159,160,161,162,163,164,165,166,167,168,169,170,171,172,173,174,175,176,177,178,179,180,181,182,183,184,185,186,187,188,189,190,191,192,193,194,195,196,197,198,199,200],"tree_info":[0,0,0,0,0,0,0,0,0,0,0,0,0,0,0,0,0,0,0,0,0,0,0,0,0,0,0,0,0,0,0,0,0,0,0,0,0,0,0,0,0,0,0,0,0,0,0,0,0,0,0,0,0,0,0,0,0,0,0,0,0,0,0,0,0,0,0,0,0,0,0,0,0,0,0,0,0,0,0,0,0,0,0,0,0,0,0,0,0,0,0,0,0,0,0,0,0,0,0,0,0,0,0,0,0,0,0,0,0,0,0,0,0,0,0,0,0,0,0,0,0,0,0,0,0,0,0,0,0,0,0,0,0,0,0,0,0,0,0,0,0,0,0,0,0,0,0,0,0,0,0,0,0,0,0,0,0,0,0,0,0,0,0,0,0,0,0,0,0,0,0,0,0,0,0,0,0,0,0,0,0,0,0,0,0,0,0,0,0,0,0,0,0,0,0,0,0,0,0,0],"trees":[{"base_weights":[-0E0,2.857143E-1,-7.692308E-1,5.3333336E-1,-6.666667E-2,-1.1111112E-1,-0E0,-2.2222223E-2,7.2E-1,4E-1,1.1111112E-1,8.571429E-2,-4.0000003E-2],"categories":[],"categories_nodes":[],"categories_segments":[],"categories_sizes":[],"default_left":[0,0,0,0,0,0,0,0,0,0,0,0,0],"id":0,"left_children":[1,3,5,7,-1,-1,-1,-1,9,11,-1,-1,-1],"loss_changes":[2.6373625E0,2.4190478E0,8.547008E-1,1.2177777E0,0E0,0E0,0E0,0E0,3.377776E-1,2.1714287E0,0E0,0E0,0E0],"parents":[2147483647,0,0,1,1,2,2,3,3,8,8,9,9],"right_children":[2,4,6,8,-1,-1,-1,-1,10,12,-1,-1,-1],"split_conditions":[5.525E-1,5.1E-1,2.1075262E-1,1.9198692E-1,-6.666667E-2,-1.1111112E-1,-0E0,-2.2222223E-2,5.252336E-1,5E-1,1.1111112E-1,8.571429E-2,-4.0000003E-2],"split_indices":[1,2,0,0,0,0,0,0,1,1,0,0,0],"split_type":[0,0,0,0,0,0,0,0,0,0,0,0,0],"sum_hessian":[1E1,7.75E0,2.25E0,6.5E0,1.25E0,1.25E0,1E0,1.25E0,5.25E0,4E0,1.25E0,2.5E0,1.5E0],"tree_param":{"num_deleted":"0","num_feature":"5","num_nodes":"13","size_leaf_vector":"1"}},{"base_weights":[-3.9218334E-3,2.6525444E-1,-7.274014E-1,4.9859336E-1,-6.30032E-2,-1.0512451E-1,-0E0,-2.0989144E-2,6.741092E-1,3.5705802E-1,1.07841015E-1,-1.544004E-1,1.05124496E-1,3.4898702E-2,-6.4459056E-2],"categories":[],"categories_nodes":[],"categories_segments":[],"categories_sizes":[],"default_left":[0,0,0,0,0,0,0,0,0,0,0,0,0,0,0],"id":1,"left_children":[1,3,5,7,-1,-1,-1,-1,9,11,-1,13,-1,-1,-1],"loss_changes":[2.3323152E0,2.1398401E0,7.646773E-1,1.0729741E0,0E0,0E0,0E0,0E0,4.1493773E-1,1.9350299E0,0E0,1.1494848E0,0E0,0E0,0E0],"parents":[2147483647,0,0,1,1,2,2,3,3,8,8,9,9,11,11],"right_children":[2,4,6,8,-1,-1,-1,-1,10,12,-1,14,-1,-1,-1],"split_conditions":[5.525E-1,5.1E-1,2.1075262E-1,1.9198692E-1,-6.30032E-2,-1.0512451E-1,-0E0,-2.0989144E-2,4.910204E-1,5.252336E-1,1.07841015E-1,4.9784616E-1,1.05124496E-1,3.4898702E-2,-6.4459056E-2],"split_indices":[1,2,0,0,0,0,0,0,2,1,0,1,0,0,0],"split_type":[0,0,0,0,0,0,0,0,0,0,0,0,0,0,0],"sum_hessian":[9.985572E0,7.739422E0,2.2461498E0,6.4908094E0,1.2486122E0,1.2461498E0,1E0,1.2498457E0,5.240964E0,3.9928982E0,1.2480655E0,2.7467484E0,1.2461499E0,1.4972482E0,1.2495002E0],"tree_param":{"num_deleted":"0","num_feature":"5","num_nodes":"15","size_leaf_vector":"1"}},{"base_weights":[-4.0455842E-3,2.5099394E-1,-6.894615E-1,4.7205758E-1,-5.9611686E-2,-9.978762E-2,-0E0,-1.982711E-2,6.386622E-1,3.3767828E-1,1.02217816E-1,-1.4707905E-1,9.978764E-2,3.284348E-2,-6.096089E-2],"categories":[],"categories_nodes":[],"categories_segments":[],"categories_sizes":[],"default_left":[0,0,0,0,0,0,0,0,0,0,0,0,0,0,0],"id":2,"left_children":[1,3,5,7,-1,-1,-1,-1,9,11,-1,13,-1,-1,-1],"loss_changes":[2.0866296E0,1.9127148E0,6.8799734E-1,9.6048343E-1,0E0,0E0,0E0,0E0,3.724811E-1,1.7394748E0,0E0,1.0230439E0,0E0,0E0,0E0],"parents":[2147483647,0,0,1,1,2,2,3,3,8,8,9,9,11,11],"right_children":[2,4,6,8,-1,-1,-1,-1,10,12,-1,14,-1,-1,-1],"split_conditions":[5.525E-1,5.1E-1,2.1075262E-1,1.9198692E-1,-5.9611686E-2,-9.978762E-2,-0E0,-1.982711E-2,4.910204E-1,5.252336E-1,1.02217816E-1,4.9784616E-1,9.978764E-2,3.284348E-2,-6.096089E-2],"split_indices":[1,2,0,0,0,0,0,0,2,1,0,1,0,0,0],"split_type":[0,0,0,0,0,0,0,0,0,0,0,0,0,0,0],"sum_hessian":[9.946738E0,7.711237E0,2.2355013E0,6.466477E0,1.2447603E0,1.2355013E0,1E0,1.2494167E0,5.21706E0,3.9766555E0,1.2404048E0,2.7411542E0,1.2355013E0,1.4945579E0,1.2465962E0],"tree_param":{"num_deleted":"0","num_feature":"5","num_nodes":"15","size_leaf_vector":"1"}},{"base_weights":[-4.116228E-3,2.3809768E-1,-6.5487045E-1,8.0063856E-1,-1.15333654E-1,-9.4994985E-2,-0E0,2.3914538E-2,1.0056209E-1,-6.771041E-1,5.2051777E-1,-2.2666821E-2,-8.104392E-2,6.418652E-2,1.6634207E-2],"categories":[],"categories_nodes":[],"categories_segments":[],"categories_sizes":[],"default_left":[0,0,0,0,0,0,0,0,0,0,0,0,0,0,0],"id":3,"left_children":[1,3,5,7,9,-1,-1,-1,-1,11,13,-1,-1,-1,-1],"loss_changes":[1.8717257E0,1.8153647E0,6.2209404E-1,1.588738E-1,2.56583E0,0E0,0E0,0E0,0E0,3.998828E-2,4.2449296E-2,0E0,0E0,0E0,0E0],"parents":[2147483647,0,0,1,1,2,2,3,3,4,4,9,9,10,10],"right_children":[2,4,6,8,10,-1,-1,-1,-1,12,14,-1,-1,-1,-1],"split_conditions":[5.525E-1,4.576923E-1,2.1075262E-1,3.82E-1,2.2661553E-1,-9.4994985E-2,-0E0,2.3914538E-2,1.0056209E-1,2.0575066E-1,2.3486556E-1,-2.2666821E-2,-8.104392E-2,6.418652E-2,1.6634207E-2],"split_indices":[1,2,0,2,3,0,0,0,0,3,3,0,0,0,0],"split_type":[0,0,0,0,0,0,0,0,0,0,0,0,0,0,0],"sum_hessian":[9.8855715E0,7.6662693E0,2.2193027E0,2.4698265E0,5.1964426E0,1.2193027E0,1E0,1.2399592E0,1.2298673E0,2.7244933E0,2.4719493E0,1.2389685E0,1.4855247E0,1.2361438E0,1.2358055E0],"tree_param":{"num_deleted":"0","num_feature":"5","num_nodes":"15","size_leaf_vector":"1"}},{"base_weights":[-3.1252613E-3,2.2666526E-1,-6.231799E-1,4.332685E-1,-5.5915277E-2,-9.066163E-2,-0E0,1.6896437E-1,9.722934E-2,7.600097E-1,-4.2423958E-1,2.2587823E-2,9.571675E-2,1.7419096E-2,-7.911236E-2],"categories":[],"categories_nodes":[],"categories_segments":[],"categories_sizes":[],"default_left":[0,0,0,0,0,0,0,0,0,0,0,0,0,0,0],"id":4,"left_children":[1,3,5,7,-1,-1,-1,9,-1,11,13,-1,-1,-1,-1],"loss_changes":[1.6862434E0,1.6457512E0,5.6498504E-1,8.911736E-1,0E0,0E0,0E0,2.4896622E0,0E0,1.4758718E-1,9.5604104E-1,0E0,0E0,0E0,0E0],"parents":[2147483647,0,0,1,1,2,2,3,3,7,7,9,9,10,10],"right_children":[2,4,6,8,-1,-1,-1,10,-1,12,14,-1,-1,-1,-1],"split_conditions":[5.525E-1,5.1E-1,2.1075262E-1,5E-1,-5.5915277E-2,-9.066163E-2,-0E0,4.576923E-1,9.722934E-2,3.82E-1,4.9321944E-1,2.2587823E-2,9.571675E-2,1.7419096E-2,-7.911236E-2],"split_indices":[1,2,0,2,0,0,0,2,0,2,4,0,0,0,0],"split_type":[0,0,0,0,0,0,0,0,0,0,0,0,0,0,0],"sum_hessian":[9.843353E0,7.644694E0,2.1986592E0,6.408456E0,1.2362379E0,1.1986591E0,1E0,5.1813226E0,1.2271335E0,2.45453E0,2.7267926E0,1.2402285E0,1.2143013E0,1.2359802E0,1.4908124E0],"tree_param":{"num_deleted":"0","num_feature":"5","num_nodes":"15","size_leaf_vector":"1"}},{"base_weights":[-2.1193707E-3,2.1677646E-1,-5.940178E-1,4.1334486E-1,-5.301882E-2,-8.671879E-2,-0E0,-2.1210996E-2,5.755061E-1,1.8863462E-1,7.7859205E-1,5.7772618E-2,-2.8211404E-2,1.515601E-2,1.0311393E-1],"categories":[],"categories_nodes":[],"categories_segments":[],"categories_sizes":[],"default_left":[0,0,0,0,0,0,0,0,0,0,0,0,0,0,0],"id":5,"left_children":[1,3,5,7,-1,-1,-1,-1,9,11,13,-1,-1,-1,-1],"loss_changes":[1.5239433E0,1.4809582E0,5.1512504E-1,8.690883E-1,0E0,0E0,0E0,0E0,3.3382154E-1,7.904767E-1,4.284153E-1,0E0,0E0,0E0,0E0],"parents":[2147483647,0,0,1,1,2,2,3,3,8,8,9,9,10,10],"right_children":[2,4,6,8,-1,-1,-1,-1,10,12,14,-1,-1,-1,-1],"split_conditions":[5.525E-1,5.1E-1,2.1075262E-1,1.9198692E-1,-5.301882E-2,-8.671879E-2,-0E0,-2.1210996E-2,4.7034484E-1,2.0833442E-1,2.1926863E-1,5.7772618E-2,-2.8211404E-2,1.515601E-2,1.0311393E-1],"split_indices":[1,2,0,0,0,0,0,0,2,0,3,0,0,0,0],"split_type":[0,0,0,0,0,0,0,0,0,0,0,0,0,0,0],"sum_hessian":[9.768217E0,7.593683E0,2.1745343E0,6.3652587E0,1.2284237E0,1.1745344E0,1E0,1.2471168E0,5.118142E0,2.425842E0,2.6923E0,1.2036939E0,1.2221482E0,1.232453E0,1.459847E0],"tree_param":{"num_deleted":"0","num_feature":"5","num_nodes":"15","size_leaf_vector":"1"}},{"base_weights":[-3.1306709E-3,2.0483741E-1,-5.670739E-1,7.1861064E-1,-1.1625235E-1,-8.311045E-2,-0E0,2.1774959E-2,9.033853E-2,-6.192784E-1,4.6166942E-1,-7.559357E-2,-1.8517481E-2,1.1211003E-2,6.0213592E-2],"categories":[],"categories_nodes":[],"categories_segments":[],"categories_sizes":[],"default_left":[0,0,0,0,0,0,0,0,0,0,0,0,0,0,0],"id":6,"left_children":[1,3,5,7,9,-1,-1,-1,-1,11,13,-1,-1,-1,-1],"loss_changes":[1.3709049E0,1.494138E0,4.7129774E-1,1.2052739E-1,2.0658832E0,0E0,0E0,0E0,0E0,7.955539E-2,1.00530565E-1,0E0,0E0,0E0,0E0],"parents":[2147483647,0,0,1,1,2,2,3,3,4,4,9,9,10,10],"right_children":[2,4,6,8,10,-1,-1,-1,-1,12,14,-1,-1,-1,-1],"split_conditions":[5.525E-1,4.576923E-1,2.1075262E-1,3.82E-1,2.2661553E-1,-8.311045E-2,-0E0,2.1774959E-2,9.033853E-2,5E-1,4.8157895E-1,-7.559357E-2,-1.8517481E-2,1.1211003E-2,6.0213592E-2],"split_indices":[1,2,0,2,3,0,0,0,0,2,1,0,0,0,0],"split_type":[0,0,0,0,0,0,0,0,0,0,0,0,0,0,0],"sum_hessian":[9.69853E0,7.550772E0,2.1477582E0,2.427889E0,5.1228833E0,1.1477582E0,1E0,1.2413831E0,1.186506E0,2.700657E0,2.4222262E0,1.4901735E0,1.2104834E0,1.2097691E0,1.2124572E0],"tree_param":{"num_deleted":"0","num_feature":"5","num_nodes":"15","size_leaf_vector":"1"}},{"base_weights":[-2.2567322E-3,1.9582179E-1,-5.4208875E-1,6.846607E-1,-1.08597584E-1,-7.979071E-2,-0E0,2.0571364E-2,8.6443685E-2,-5.840054E-1,4.3732524E-1,-7.126361E-2,-1.751098E-2,5.7388045E-2,1.0299398E-2],"categories":[],"categories_nodes":[],"categories_segments":[],"categories_sizes":[],"default_left":[0,0,0,0,0,0,0,0,0,0,0,0,0,0,0],"id":7,"left_children":[1,3,5,7,9,-1,-1,-1,-1,11,13,-1,-1,-1,-1],"loss_changes":[1.2429035E0,1.3410168E0,4.3253654E-1,1.1521649E-1,1.8407633E0,0E0,0E0,0E0,0E0,6.946468E-2,9.681189E-2,0E0,0E0,0E0,0E0],"parents":[2147483647,0,0,1,1,2,2,3,3,4,4,9,9,10,10],"right_children":[2,4,6,8,10,-1,-1,-1,-1,12,14,-1,-1,-1,-1],"split_conditions":[5.525E-1,4.576923E-1,2.1075262E-1,3.82E-1,2.2661553E-1,-7.979071E-2,-0E0,2.0571364E-2,8.6443685E-2,5E-1,2.3486556E-1,-7.126361E-2,-1.751098E-2,5.7388045E-2,1.0299398E-2],"split_indices":[1,2,0,2,3,0,0,0,0,2,3,0,0,0,0],"split_type":[0,0,0,0,0,0,0,0,0,0,0,0,0,0,0],"sum_hessian":[9.630879E0,7.511842E0,2.1190374E0,2.40339E0,5.108452E0,1.1190375E0,1E0,1.2411313E0,1.1622586E0,2.693288E0,2.4151635E0,1.4837102E0,1.209578E0,1.2060561E0,1.2091075E0],"tree_param":{"num_deleted":"0","num_feature":"5","num_nodes":"15","size_leaf_vector":"1"}},{"base_weights":[-1.4817857E-3,4.0744722E-1,-2.4184045E-1,-2.9227197E-2,8.596386E-2,-1.02851145E-1,8.936496E-2,-5.010116E-1,6.91898E-2,2.5251724E-3,-8.698635E-2],"categories":[],"categories_nodes":[],"categories_segments":[],"categories_sizes":[],"default_left":[0,0,0,0,0,0,0,0,0,0,0],"id":8,"left_children":[1,3,5,-1,-1,-1,7,9,-1,-1,-1],"loss_changes":[1.1359138E0,1.605325E0,1.9873445E0,0E0,0E0,0E0,2.4950044E0,7.2669315E-1,0E0,0E0,0E0],"parents":[2147483647,0,0,1,1,2,2,6,6,7,7],"right_children":[2,4,6,-1,-1,-1,8,10,-1,-1,-1],"split_conditions":[4.576923E-1,3.7E-1,4.7034484E-1,-2.9227197E-2,8.596386E-2,-1.02851145E-1,2.2661553E-1,5E-1,6.91898E-2,2.5251724E-3,-8.698635E-2],"split_indices":[2,2,2,0,0,0,3,1,0,0,0],"split_type":[0,0,0,0,0,0,0,0,0,0,0],"sum_hessian":[9.554283E0,3.279542E0,6.274741E0,1.426239E0,1.853303E0,1.2353084E0,5.0394325E0,2.6304977E0,2.4089348E0,1.4678156E0,1.1626822E0],"tree_param":{"num_deleted":"0","num_feature":"5","num_nodes":"11","size_leaf_vector":"1"}},{"base_weights":[-7.2147665E-3,1.7855832E-1,-5.1158365E-2,3.6941174E-1,-5.197055E-2,6.5427494E-1,-1.3302581E-2,1.7072259E-2,9.917767E-2,-6.2736385E-2,4.5749143E-2],"categories":[],"categories_nodes":[],"categories_segments":[],"categories_sizes":[],"default_left":[0,0,0,0,0,0,0,0,0,0,0],"id":9,"left_children":[1,3,-1,5,-1,7,9,-1,-1,-1,-1],"loss_changes":[1.0717969E0,1.309887E0,0E0,7.906458E-1,0E0,5.0498486E-1,1.4551406E0,0E0,0E0,0E0,0E0],"parents":[2147483647,0,0,1,1,3,3,5,5,6,6],"right_children":[2,4,-1,6,-1,8,10,-1,-1,-1,-1],"split_conditions":[5.525E-1,5.1E-1,-5.1158365E-2,5.0166667E-1,-5.197055E-2,4.834188E-1,2.056874E-1,1.7072259E-2,9.917767E-2,-6.2736385E-2,4.5749143E-2],"split_indices":[1,2,0,1,0,1,0,0,0,0,0],"split_type":[0,0,0,0,0,0,0,0,0,0,0],"sum_hessian":[9.463911E0,7.3884983E0,2.0754128E0,6.1723843E0,1.2161142E0,3.13177E0,3.0406146E0,1.9063325E0,1.2254373E0,1.1752105E0,1.865404E0],"tree_param":{"num_deleted":"0","num_feature":"5","num_nodes":"11","size_leaf_vector":"1"}},{"base_weights":[-6.8903333E-3,3.819975E-1,-2.3567711E-1,-2.6521934E-2,8.002361E-2,-9.753444E-2,8.032692E-2,-4.7910216E-1,6.494331E-2,2.7014274E-4,-8.109826E-2],"categories":[],"categories_nodes":[],"categories_segments":[],"categories_sizes":[],"default_left":[0,0,0,0,0,0,0,0,0,0,0],"id":10,"left_children":[1,3,5,-1,-1,-1,7,9,-1,-1,-1],"loss_changes":[1.0146241E0,1.3574595E0,1.7521923E0,0E0,0E0,0E0,2.202763E0,5.733071E-1,0E0,0E0,0E0],"parents":[2147483647,0,0,1,1,2,2,6,6,7,7],"right_children":[2,4,6,-1,-1,-1,8,10,-1,-1,-1],"split_conditions":[4.576923E-1,3.7E-1,4.7034484E-1,-2.6521934E-2,8.002361E-2,-9.753444E-2,2.2661553E-1,5E-1,6.494331E-2,2.7014274E-4,-8.109826E-2],"split_indices":[2,2,2,0,0,0,3,1,0,0,0],"split_type":[0,0,0,0,0,0,0,0,0,0,0],"sum_hessian":[9.391944E0,3.230733E0,6.1612105E0,1.4118248E0,1.8189081E0,1.2197236E0,4.9414873E0,2.571683E0,2.3698041E0,1.4534762E0,1.1182069E0],"tree_param":{"num_deleted":"0","num_feature":"5","num_nodes":"11","size_leaf_vector":"1"}},{"base_weights":[-1.2104313E-2,3.5945892E-1,-2.3047483E-1,-2.5015512E-2,7.565992E-2,-9.298069E-2,7.021299E-2,-4.578783E-1,6.0868848E-2,2.541366E-4,-7.794273E-2],"categories":[],"categories_nodes":[],"categories_segments":[],"categories_sizes":[],"default_left":[0,0,0,0,0,0,0,0,0,0,0],"id":11,"left_children":[1,3,5,-1,-1,-1,7,9,-1,-1,-1],"loss_changes":[9.174391E-1,1.2056537E0,1.5557255E0,0E0,0E0,0E0,1.9526042E0,5.264517E-1,0E0,0E0,0E0],"parents":[2147483647,0,0,1,1,2,2,6,6,7,7],"right_children":[2,4,6,-1,-1,-1,8,10,-1,-1,-1],"split_conditions":[4.576923E-1,3.7E-1,4.7034484E-1,-2.5015512E-2,7.565992E-2,-9.298069E-2,2.2661553E-1,5E-1,6.0868848E-2,2.541366E-4,-7.794273E-2],"split_indices":[2,2,2,0,0,0,3,1,0,0,0],"split_type":[0,0,0,0,0,0,0,0,0,0,0],"sum_hessian":[9.286034E0,3.1981688E0,6.087865E0,1.4075996E0,1.7905691E0,1.2014039E0,4.8864613E0,2.5425851E0,2.343876E0,1.4534769E0,1.0891083E0],"tree_param":{"num_deleted":"0","num_feature":"5","num_nodes":"11","size_leaf_vector":"1"}},{"base_weights":[-1.6857473E-2,-1.5532447E-1,5.63034E-2,7.857665E-2,-8.79312E-2,5.5834705E-1,-2.238102E-1,1.4928988E-2,7.314905E-2,-7.305429E-2,1.4309452E-1,5.4940093E-2,-2.257587E-2],"categories":[],"categories_nodes":[],"categories_segments":[],"categories_sizes":[],"default_left":[0,0,0,0,0,0,0,0,0,0,0,0,0],"id":12,"left_children":[1,3,-1,5,-1,7,9,-1,-1,-1,11,-1,-1],"loss_changes":[9.041351E-1,1.592185E0,0E0,1.2443621E0,0E0,1.22336745E-1,1.1172125E0,0E0,0E0,0E0,7.228232E-1,0E0,0E0],"parents":[2147483647,0,0,1,1,3,3,5,5,6,6,10,10],"right_children":[2,4,-1,6,-1,8,10,-1,-1,-1,12,-1,-1],"split_conditions":[2.3656727E-1,5.525E-1,5.63034E-2,4.576923E-1,-8.79312E-2,3.82E-1,4.834188E-1,1.4928988E-2,7.314905E-2,-7.305429E-2,5E-1,5.4940093E-2,-2.257587E-2],"split_indices":[0,1,0,2,0,2,1,0,0,0,1,0,0],"split_type":[0,0,0,0,0,0,0,0,0,0,0,0,0],"sum_hessian":[9.170916E0,7.994202E0,1.1767138E0,6.7159305E0,1.2782717E0,2.2691712E0,4.446759E0,1.2286581E0,1.0405132E0,1.451287E0,2.995472E0,1.1924535E0,1.8030186E0],"tree_param":{"num_deleted":"0","num_feature":"5","num_nodes":"13","size_leaf_vector":"1"}},{"base_weights":[-1.379436E-2,-1.4583519E-1,5.344775E-2,7.753096E-2,-8.442821E-2,5.3508157E-1,-2.097577E-1,1.4114425E-2,7.0545495E-2,-6.900079E-2,1.3735627E-1,5.2159812E-2,-2.115634E-2],"categories":[],"categories_nodes":[],"categories_segments":[],"categories_sizes":[],"default_left":[0,0,0,0,0,0,0,0,0,0,0,0,0],"id":13,"left_children":[1,3,-1,5,-1,7,9,-1,-1,-1,11,-1,-1],"loss_changes":[8.071757E-1,1.454505E0,0E0,1.1194077E0,0E0,1.1767924E-1,9.991565E-1,0E0,0E0,0E0,6.443569E-1,0E0,0E0],"parents":[2147483647,0,0,1,1,3,3,5,5,6,6,10,10],"right_children":[2,4,-1,6,-1,8,10,-1,-1,-1,12,-1,-1],"split_conditions":[2.3656727E-1,5.525E-1,5.344775E-2,4.576923E-1,-8.442821E-2,3.82E-1,4.834188E-1,1.4114425E-2,7.0545495E-2,-6.900079E-2,5E-1,5.2159812E-2,-2.115634E-2],"split_indices":[0,1,0,2,0,2,1,0,0,0,1,0,0],"split_type":[0,0,0,0,0,0,0,0,0,0,0,0,0],"sum_hessian":[9.073036E0,7.9036117E0,1.169425E0,6.6620545E0,1.2415569E0,2.236912E0,4.425143E0,1.2273877E0,1.0095243E0,1.4420917E0,2.983051E0,1.1841412E0,1.7989098E0],"tree_param":{"num_deleted":"0","num_feature":"5","num_nodes":"13","size_leaf_vector":"1"}},{"base_weights":[-1.1016512E-2,1.4689255E-1,-4.372397E-2,3.26475E-1,-4.810435E-2,-1.298901E-2,5.164178E-1,-7.0249103E-3,8.6005114E-2],"categories":[],"categories_nodes":[],"categories_segments":[],"categories_sizes":[],"default_left":[0,0,0,0,0,0,0,0,0],"id":14,"left_children":[1,3,-1,5,-1,-1,7,-1,-1],"loss_changes":[7.3522305E-1,1.0617728E0,0E0,6.5951324E-1,0E0,0E0,1.073828E0,0E0,0E0],"parents":[2147483647,0,0,1,1,3,3,6,6],"right_children":[2,4,-1,6,-1,-1,8,-1,-1],"split_conditions":[5.525E-1,5.1E-1,-4.372397E-2,1.9937988E-1,-4.810435E-2,-1.298901E-2,4.7034484E-1,-7.0249103E-3,8.6005114E-2],"split_indices":[1,2,0,0,0,0,2,0,0],"split_type":[0,0,0,0,0,0,0,0,0],"sum_hessian":[8.969552E0,7.0230017E0,1.9465504E0,5.834488E0,1.1885138E0,1.8076086E0,4.0268793E0,1.7813109E0,2.2455683E0],"tree_param":{"num_deleted":"0","num_feature":"5","num_nodes":"9","size_leaf_vector":"1"}},{"base_weights":[-1.2466545E-2,3.3783582E-1,-2.1803616E-1,-2.1698868E-2,7.005499E-2,-8.60322E-2,6.4327754E-2,-4.4036523E-1,5.7425708E-2,-2.6512505E-3,-7.180599E-2],"categories":[],"categories_nodes":[],"categories_segments":[],"categories_sizes":[],"default_left":[0,0,0,0,0,0,0,0,0,0,0],"id":15,"left_children":[1,3,5,-1,-1,-1,7,9,-1,-1,-1],"loss_changes":[7.860008E-1,9.671369E-1,1.2961185E0,0E0,0E0,0E0,1.7153863E0,3.7423784E-1,0E0,0E0,0E0],"parents":[2147483647,0,0,1,1,2,2,6,6,7,7],"right_children":[2,4,6,-1,-1,-1,8,10,-1,-1,-1],"split_conditions":[4.576923E-1,3.7E-1,4.7034484E-1,-2.1698868E-2,7.005499E-2,-8.60322E-2,2.2661553E-1,5E-1,5.7425708E-2,-2.6512505E-3,-7.180599E-2],"split_indices":[2,2,2,0,0,0,3,1,0,0,0],"split_type":[0,0,0,0,0,0,0,0,0,0,0],"sum_hessian":[8.892033E0,3.0504606E0,5.8415723E0,1.364706E0,1.6857545E0,1.1588076E0,4.6827645E0,2.4220273E0,2.2607372E0,1.4124719E0,1.0095556E0],"tree_param":{"num_deleted":"0","num_feature":"5","num_nodes":"11","size_leaf_vector":"1"}},{"base_weights":[-1.6993526E-2,-1.4463603E-1,5.0869234E-2,6.4904526E-2,-7.987099E-2,4.9832143E-2,-2.070015E-1,-6.49335E-2,1.19921125E-1,-1.8956421E-2,4.7632296E-2],"categories":[],"categories_nodes":[],"categories_segments":[],"categories_sizes":[],"default_left":[0,0,0,0,0,0,0,0,0,0,0],"id":16,"left_children":[1,3,-1,5,-1,-1,7,-1,9,-1,-1],"loss_changes":[7.2918236E-1,1.2360394E0,0E0,9.8333544E-1,0E0,0E0,8.437201E-1,0E0,5.1929855E-1,0E0,0E0],"parents":[2147483647,0,0,1,1,3,3,6,6,8,8],"right_children":[2,4,-1,6,-1,-1,8,-1,10,-1,-1],"split_conditions":[2.3656727E-1,5.525E-1,5.0869234E-2,4.576923E-1,-7.987099E-2,4.9832143E-2,4.834188E-1,-6.49335E-2,2.2661553E-1,-1.8956421E-2,4.7632296E-2],"split_indices":[0,1,0,2,0,0,1,0,3,0,0],"split_type":[0,0,0,0,0,0,0,0,0,0,0],"sum_hessian":[8.770618E0,7.6403236E0,1.1302953E0,6.4687495E0,1.1715742E0,2.1727304E0,4.2960186E0,1.4066231E0,2.8893957E0,1.7970365E0,1.0923592E0],"tree_param":{"num_deleted":"0","num_feature":"5","num_nodes":"11","size_leaf_vector":"1"}},{"base_weights":[-1.7135486E-2,-1.3947423E-1,4.8377167E-2,6.0749646E-2,-7.695078E-2,-1.5402535E-1,5.5494662E-2,3.4872524E-2,-5.035888E-1,-8.464795E-2,-6.063015E-3],"categories":[],"categories_nodes":[],"categories_segments":[],"categories_sizes":[],"default_left":[0,0,0,0,0,0,0,0,0,0,0],"id":17,"left_children":[1,3,-1,5,-1,7,-1,-1,9,-1,-1],"loss_changes":[6.5995747E-1,1.1249053E0,0E0,8.7224555E-1,0E0,1.2212344E0,0E0,0E0,5.438715E-1,0E0,0E0],"parents":[2147483647,0,0,1,1,3,3,5,5,8,8],"right_children":[2,4,-1,6,-1,8,-1,-1,10,-1,-1],"split_conditions":[2.3656727E-1,5.525E-1,4.8377167E-2,5.252336E-1,-7.695078E-2,2.0697404E-1,5.5494662E-2,3.4872524E-2,4.7034484E-1,-8.464795E-2,-6.063015E-3],"split_indices":[0,1,0,1,0,3,0,0,2,0,0],"split_type":[0,0,0,0,0,0,0,0,0,0,0],"sum_hessian":[8.668415E0,7.546787E0,1.121628E0,6.4124846E0,1.1343023E0,4.949705E0,1.4627795E0,2.0310285E0,2.9186764E0,1.1316825E0,1.7869939E0],"tree_param":{"num_deleted":"0","num_feature":"5","num_nodes":"11","size_leaf_vector":"1"}},{"base_weights":[-1.8775951E-2,2.9964268E-1,-2.0336145E-1,-2.1294827E-2,6.447964E-2,-8.0271564E-2,6.035467E-2,-4.0444657E-1,5.297005E-2,-4.992574E-2,-1.2411751E-2],"categories":[],"categories_nodes":[],"categories_segments":[],"categories_sizes":[],"default_left":[0,0,0,0,0,0,0,0,0,0,0],"id":18,"left_children":[1,3,5,-1,-1,-1,7,9,-1,-1,-1],"loss_changes":[6.2309235E-1,8.2980716E-1,1.0995966E0,0E0,0E0,0E0,1.424625E0,2.719593E-2,0E0,0E0,0E0],"parents":[2147483647,0,0,1,1,2,2,6,6,7,7],"right_children":[2,4,6,-1,-1,-1,8,10,-1,-1,-1],"split_conditions":[4.576923E-1,3.7E-1,4.7034484E-1,-2.1294827E-2,6.447964E-2,-8.0271564E-2,2.2661553E-1,4.9746856E-1,5.297005E-2,-4.992574E-2,-1.2411751E-2],"split_indices":[2,2,2,0,0,0,3,4,0,0,0],"split_type":[0,0,0,0,0,0,0,0,0,0,0],"sum_hessian":[8.564479E0,2.9141338E0,5.650345E0,1.3267696E0,1.5873643E0,1.1019815E0,4.548363E0,2.3547199E0,2.1936433E0,1.1760097E0,1.1787102E0],"tree_param":{"num_deleted":"0","num_feature":"5","num_nodes":"11","size_leaf_vector":"1"}},{"base_weights":[-2.1965189E-2,-1.4025228E-1,4.6015326E-2,5.5023395E-2,-7.497877E-2,3.090525E-1,-3.0753922E-1,7.239347E-2,-1.5795454E-1,-8.835954E-2,3.6206283E-2,3.0799756E-2,-5.4814767E-2],"categories":[],"categories_nodes":[],"categories_segments":[],"categories_sizes":[],"default_left":[0,0,0,0,0,0,0,0,0,0,0,0,0],"id":19,"left_children":[1,3,-1,5,-1,7,9,-1,11,-1,-1,-1,-1],"loss_changes":[6.039226E-1,1.0364698E0,0E0,7.640817E-1,0E0,1.03858E0,1.6676388E0,0E0,7.26079E-1,0E0,0E0,0E0,0E0],"parents":[2147483647,0,0,1,1,3,3,5,5,6,6,8,8],"right_children":[2,4,-1,6,-1,8,10,-1,12,-1,-1,-1,-1],"split_conditions":[2.3656727E-1,5.525E-1,4.6015326E-2,4.8268908E-1,-7.497877E-2,5.019608E-1,4.9746856E-1,7.239347E-2,2.0697404E-1,-8.835954E-2,3.6206283E-2,3.0799756E-2,-5.4814767E-2],"split_indices":[0,1,0,2,0,4,4,0,3,0,0,0,0],"split_type":[0,0,0,0,0,0,0,0,0,0,0,0,0],"sum_hessian":[8.458186E0,7.361214E0,1.096972E0,6.2641196E0,1.0970948E0,3.770154E0,2.4939656E0,1.7051584E0,2.0649955E0,1.1688367E0,1.3251289E0,1.0371404E0,1.0278553E0],"tree_param":{"num_deleted":"0","num_feature":"5","num_nodes":"13","size_leaf_vector":"1"}},{"base_weights":[-2.3671627E-2,-3.7833634E-1,1.4134614E-1,1.687363E-2,-7.747638E-2,5.813696E-2,-3.7199624E-2,-2.3208354E-1,4.381542E-2,-5.293225E-2,1.0238074E-1,4.38901E-2,-2.5929997E-2],"categories":[],"categories_nodes":[],"categories_segments":[],"categories_sizes":[],"default_left":[0,0,0,0,0,0,0,0,0,0,0,0,0],"id":20,"left_children":[1,3,5,-1,-1,-1,7,9,-1,-1,11,-1,-1],"loss_changes":[5.9967893E-1,8.3241487E-1,5.792147E-1,0E0,0E0,0E0,6.5645736E-1,5.414269E-1,0E0,0E0,4.9647388E-1,0E0,0E0],"parents":[2147483647,0,0,1,1,2,2,6,6,7,7,10,10],"right_children":[2,4,6,-1,-1,-1,8,10,-1,-1,12,-1,-1],"split_conditions":[2.0267382E-1,4.5672897E-1,2.0518592E-1,1.687363E-2,-7.747638E-2,5.813696E-2,2.3656727E-1,5.1E-1,4.381542E-2,-5.293225E-2,5.466667E-1,4.38901E-2,-2.5929997E-2],"split_indices":[0,2,0,0,0,0,0,1,0,0,1,0,0],"split_type":[0,0,0,0,0,0,0,0,0,0,0,0,0],"sum_hessian":[8.332652E0,2.2354364E0,6.097216E0,1.1805824E0,1.054854E0,1.108701E0,4.9885154E0,3.900974E0,1.0875411E0,1.7569615E0,2.1440127E0,1.0000383E0,1.1439743E0],"tree_param":{"num_deleted":"0","num_feature":"5","num_nodes":"13","size_leaf_vector":"1"}},{"base_weights":[-2.087982E-2,-4.288022E-2,1.13269456E-1,2.7993077E-1,-3.213918E-2,1.1603867E-2,7.751527E-2,2.7670172E-1,-5.0502967E-2,-2.6765505E-2,6.65258E-2],"categories":[],"categories_nodes":[],"categories_segments":[],"categories_sizes":[],"default_left":[0,0,0,0,0,0,0,0,0,0,0],"id":21,"left_children":[1,-1,3,5,-1,7,-1,9,-1,-1,-1],"loss_changes":[5.549504E-1,0E0,6.517208E-1,8.068747E-1,0E0,8.24174E-1,0E0,1.0132656E0,0E0,0E0,0E0],"parents":[2147483647,0,0,2,2,3,3,5,5,7,7],"right_children":[2,-1,4,6,-1,8,-1,10,-1,-1,-1],"split_conditions":[1.9198692E-1,-4.288022E-2,5.525E-1,5.252336E-1,-3.213918E-2,5.058824E-1,7.751527E-2,4.951421E-1,-5.0502967E-2,-2.6765505E-2,6.65258E-2],"split_indices":[0,0,1,1,0,1,0,4,0,0,0],"split_type":[0,0,0,0,0,0,0,0,0,0,0],"sum_hessian":[8.253605E0,1.4989941E0,6.7546105E0,5.1398335E0,1.614777E0,3.9973655E0,1.1424679E0,2.9487174E0,1.0486481E0,1.3577299E0,1.5909876E0],"tree_param":{"num_deleted":"0","num_feature":"5","num_nodes":"11","size_leaf_vector":"1"}},{"base_weights":[-1.9703327E-2,2.821469E-1,-1.9608252E-1,-1.9019688E-2,6.0210694E-2,-7.5708196E-2,5.7269543E-2,-3.5848978E-1,4.7423743E-2,-1.1498777E-2,-4.30856E-2],"categories":[],"categories_nodes":[],"categories_segments":[],"categories_sizes":[],"default_left":[0,0,0,0,0,0,0,0,0,0,0],"id":22,"left_children":[1,3,5,-1,-1,-1,7,9,-1,-1,-1],"loss_changes":[5.424525E-1,6.864847E-1,9.4802976E-1,0E0,0E0,0E0,1.0913264E0,7.3845983E-3,0E0,0E0,0E0],"parents":[2147483647,0,0,1,1,2,2,6,6,7,7],"right_children":[2,4,6,-1,-1,-1,8,10,-1,-1,-1],"split_conditions":[4.576923E-1,3.7E-1,4.7034484E-1,-1.9019688E-2,6.0210694E-2,-7.5708196E-2,2.2661553E-1,5.048485E-1,4.7423743E-2,-1.1498777E-2,-4.30856E-2],"split_indices":[2,2,2,0,0,0,3,2,0,0,0],"split_type":[0,0,0,0,0,0,0,0,0,0,0],"sum_hessian":[8.149653E0,2.7845664E0,5.365087E0,1.288285E0,1.4962814E0,1.0505612E0,4.314526E0,2.2306185E0,2.0839074E0,1.1041802E0,1.1264383E0],"tree_param":{"num_deleted":"0","num_feature":"5","num_nodes":"11","size_leaf_vector":"1"}},{"base_weights":[-2.25453E-2,-3.547442E-1,1.3178381E-1,-5.327184E-2,1.1353021E-3,5.630855E-2,-4.5097448E-2,-2.3626296E-1,4.2136397E-2,-5.0169528E-2,7.455732E-2,2.1881526E-2,-1.0925937E-2],"categories":[],"categories_nodes":[],"categories_segments":[],"categories_sizes":[],"default_left":[0,0,0,0,0,0,0,0,0,0,0,0,0],"id":23,"left_children":[1,3,5,-1,-1,-1,7,9,-1,-1,11,-1,-1],"loss_changes":[5.102819E-1,2.105613E-1,5.519823E-1,0E0,0E0,0E0,6.186083E-1,4.3090054E-1,0E0,0E0,1.0524999E-1,0E0,0E0],"parents":[2147483647,0,0,1,1,2,2,6,6,7,7,10,10],"right_children":[2,4,6,-1,-1,-1,8,10,-1,-1,12,-1,-1],"split_conditions":[2.0267382E-1,5.1134443E-1,2.0518592E-1,-5.327184E-2,1.1353021E-3,5.630855E-2,2.3656727E-1,5.1E-1,4.2136397E-2,-5.0169528E-2,4.8070422E-1,2.1881526E-2,-1.0925937E-2],"split_indices":[0,4,0,0,0,0,0,1,0,0,2,0,0],"split_type":[0,0,0,0,0,0,0,0,0,0,0,0,0],"sum_hessian":[8.041365E0,2.1388316E0,5.9025326E0,1.1329379E0,1.0058938E0,1.0816536E0,4.820879E0,3.7695422E0,1.0513368E0,1.7019885E0,2.0675538E0,1.0517495E0,1.0158043E0],"tree_param":{"num_deleted":"0","num_feature":"5","num_nodes":"13","size_leaf_vector":"1"}},{"base_weights":[-1.961704E-2,2.7217564E-1,-1.9186637E-1,-1.7726105E-2,5.7734977E-2,-7.268818E-2,5.0916404E-2,-3.4155747E-1,4.4483777E-2,-1.1136032E-2,-4.078658E-2],"categories":[],"categories_nodes":[],"categories_segments":[],"categories_sizes":[],"default_left":[0,0,0,0,0,0,0,0,0,0,0],"id":24,"left_children":[1,3,5,-1,-1,-1,7,9,-1,-1,-1],"loss_changes":[5.042789E-1,6.1695945E-1,8.478168E-1,0E0,0E0,0E0,9.602446E-1,3.1897128E-3,0E0,0E0,0E0],"parents":[2147483647,0,0,1,1,2,2,6,6,7,7],"right_children":[2,4,6,-1,-1,-1,8,10,-1,-1,-1],"split_conditions":[4.576923E-1,3.7E-1,4.7034484E-1,-1.7726105E-2,5.7734977E-2,-7.268818E-2,2.2661553E-1,5.048485E-1,4.4483777E-2,-1.1136032E-2,-4.078658E-2],"split_indices":[2,2,2,0,0,0,3,2,0,0,0],"split_type":[0,0,0,0,0,0,0,0,0,0,0],"sum_hessian":[7.9941845E0,2.7520497E0,5.242135E0,1.2824723E0,1.4695773E0,1.0138892E0,4.2282457E0,2.1846015E0,2.0436442E0,1.087757E0,1.0968446E0],"tree_param":{"num_deleted":"0","num_feature":"5","num_nodes":"11","size_leaf_vector":"1"}},{"base_weights":[-2.2376394E-2,2.1357583E-1,-2.2694808E-1,-2.8534437E-2,6.826719E-2,-5.698271E-1,3.0744076E-2,-1.8388098E-2,-6.897729E-2],"categories":[],"categories_nodes":[],"categories_segments":[],"categories_sizes":[],"default_left":[0,0,0,0,0,0,0,0,0],"id":25,"left_children":[1,3,5,-1,-1,7,-1,-1,-1],"loss_changes":[4.774851E-1,1.2813565E0,1.1363009E0,0E0,0E0,3.7302494E-2,0E0,0E0,0E0],"parents":[2147483647,0,0,1,1,2,2,5,5],"right_children":[2,4,6,-1,-1,8,-1,-1,-1],"split_conditions":[5.058824E-1,4.9746856E-1,5.301659E-1,-2.8534437E-2,6.826719E-2,5.1134443E-1,3.0744076E-2,-1.8388098E-2,-6.897729E-2],"split_indices":[1,4,4,0,0,4,0,0,0],"split_type":[0,0,0,0,0,0,0,0,0],"sum_hessian":[7.8879657E0,3.6425953E0,4.2453704E0,1.9550072E0,1.6875881E0,2.5456767E0,1.6996937E0,1.2041502E0,1.3415264E0],"tree_param":{"num_deleted":"0","num_feature":"5","num_nodes":"9","size_leaf_vector":"1"}},{"base_weights":[-2.2159826E-2,1.1598487E-1,-3.7052162E-2,2.7832556E-1,-4.0811185E-2,-1.4960933E-2,4.6373844E-1,-1.6270556E-3,7.2159015E-2],"categories":[],"categories_nodes":[],"categories_segments":[],"categories_sizes":[],"default_left":[0,0,0,0,0,0,0,0,0],"id":26,"left_children":[1,3,-1,5,-1,-1,7,-1,-1],"loss_changes":[4.67323E-1,7.1558905E-1,0E0,5.4518676E-1,0E0,0E0,5.5978096E-1,0E0,0E0],"parents":[2147483647,0,0,1,1,3,3,6,6],"right_children":[2,4,-1,6,-1,-1,8,-1,-1],"split_conditions":[5.525E-1,5.1E-1,-3.7052162E-2,1.9937988E-1,-4.0811185E-2,-1.4960933E-2,4.7034484E-1,-1.6270556E-3,7.2159015E-2],"split_indices":[1,2,0,0,0,0,2,0,0],"split_type":[0,0,0,0,0,0,0,0,0],"sum_hessian":[7.817745E0,6.0755215E0,1.7422239E0,4.996715E0,1.0788064E0,1.5688634E0,3.4278514E0,1.5252997E0,1.9025519E0],"tree_param":{"num_deleted":"0","num_feature":"5","num_nodes":"9","size_leaf_vector":"1"}},{"base_weights":[-2.2522908E-2,2.6469535E-1,-1.9535951E-1,-1.5331313E-2,5.4653943E-2,-4.406031E-1,1.2255603E-1,3.6537633E-3,-6.985015E-2,-2.4328072E-2,4.706911E-2],"categories":[],"categories_nodes":[],"categories_segments":[],"categories_sizes":[],"default_left":[0,0,0,0,0,0,0,0,0,0,0],"id":27,"left_children":[1,3,5,-1,-1,7,9,-1,-1,-1,-1],"loss_changes":[4.8567948E-1,5.207489E-1,5.243796E-1,0E0,0E0,4.7139925E-1,5.4876655E-1,0E0,0E0,0E0,0E0],"parents":[2147483647,0,0,1,1,2,2,5,5,6,6],"right_children":[2,4,6,-1,-1,8,10,-1,-1,-1,-1],"split_conditions":[4.576923E-1,3.7E-1,5E-1,-1.5331313E-2,5.4653943E-2,4.9784616E-1,5.151659E-1,3.6537633E-3,-6.985015E-2,-2.4328072E-2,4.706911E-2],"split_indices":[2,2,2,0,0,1,4,0,0,0,0],"split_type":[0,0,0,0,0,0,0,0,0,0,0],"sum_hessian":[7.741997E0,2.7088978E0,5.0330987E0,1.2745794E0,1.4343184E0,2.6234374E0,2.4096613E0,1.2216233E0,1.4018141E0,1.3218195E0,1.0878417E0],"tree_param":{"num_deleted":"0","num_feature":"5","num_nodes":"11","size_leaf_vector":"1"}},{"base_weights":[-2.0897066E-2,-3.3822067E-2,1.2742575E-1,5.2842345E-2,-3.9436236E-2,3.546024E-2,-2.291552E-1,-5.790118E-2,9.236331E-2,-2.0148566E-2,3.5619628E-2],"categories":[],"categories_nodes":[],"categories_segments":[],"categories_sizes":[],"default_left":[0,0,0,0,0,0,0,0,0,0,0],"id":28,"left_children":[1,-1,3,-1,5,-1,7,-1,9,-1,-1],"loss_changes":[4.51486E-1,0E0,4.6508694E-1,0E0,5.0131464E-1,0E0,5.4844654E-1,0E0,3.163998E-1,0E0,0E0],"parents":[2147483647,0,0,2,2,4,4,6,6,8,8],"right_children":[2,-1,4,-1,6,-1,8,-1,10,-1,-1],"split_conditions":[2.0267382E-1,-3.3822067E-2,2.0518592E-1,5.2842345E-2,3.9285713E-1,3.546024E-2,2.2661553E-1,-5.790118E-2,5.1111114E-1,-2.0148566E-2,3.5619628E-2],"split_indices":[0,0,0,0,2,0,3,0,4,0,0],"split_type":[0,0,0,0,0,0,0,0,0,0,0],"sum_hessian":[7.676861E0,2.0375025E0,5.6393585E0,1.0203807E0,4.6189775E0,1.218698E0,3.4002798E0,1.2448474E0,2.1554322E0,1.1315076E0,1.0239246E0],"tree_param":{"num_deleted":"0","num_feature":"5","num_nodes":"11","size_leaf_vector":"1"}},{"base_weights":[-1.7566556E-2,2.5493655E-1,-1.8355362E-1,-1.5267937E-2,5.3293448E-2,-4.1560665E-1,1.18107654E-1,3.6790487E-3,-6.6083096E-2,-2.2312349E-2,4.416025E-2],"categories":[],"categories_nodes":[],"categories_segments":[],"categories_sizes":[],"default_left":[0,0,0,0,0,0,0,0,0,0,0],"id":29,"left_children":[1,3,5,-1,-1,7,9,-1,-1,-1,-1],"loss_changes":[4.3677783E-1,4.9863735E-1,4.648604E-1,0E0,0E0,4.2129236E-1,4.695563E-1,0E0,0E0,0E0,0E0],"parents":[2147483647,0,0,1,1,2,2,5,5,6,6],"right_children":[2,4,6,-1,-1,8,10,-1,-1,-1,-1],"split_conditions":[4.576923E-1,3.7E-1,5E-1,-1.5267937E-2,5.3293448E-2,4.9784616E-1,5.151659E-1,3.6790487E-3,-6.6083096E-2,-2.2312349E-2,4.416025E-2],"split_indices":[2,2,2,0,0,1,4,0,0,0,0],"split_type":[0,0,0,0,0,0,0,0,0,0,0],"sum_hessian":[7.621848E0,2.6823378E0,4.9395103E0,1.2703987E0,1.4119389E0,2.5783713E0,2.361139E0,1.2051135E0,1.3732578E0,1.300066E0,1.0610731E0],"tree_param":{"num_deleted":"0","num_feature":"5","num_nodes":"11","size_leaf_vector":"1"}},{"base_weights":[-1.622229E-2,-3.2579873E-2,1.2833796E-1,2.8157797E-1,-2.469181E-2,-9.89855E-3,4.094939E-1,5.8755018E-2,1.0343116E-2],"categories":[],"categories_nodes":[],"categories_segments":[],"categories_sizes":[],"default_left":[0,0,0,0,0,0,0,0,0],"id":30,"left_children":[1,-1,3,5,-1,-1,7,-1,-1],"loss_changes":[4.247471E-1,0E0,4.4620055E-1,2.8969175E-1,0E0,0E0,1.5859634E-1,0E0,0E0],"parents":[2147483647,0,0,2,2,3,3,6,6],"right_children":[2,-1,4,6,-1,-1,8,-1,-1],"split_conditions":[2.0267382E-1,-3.2579873E-2,5.525E-1,4.8157895E-1,-2.469181E-2,-9.89855E-3,5.019608E-1,5.8755018E-2,1.0343116E-2],"split_indices":[0,0,1,1,0,0,4,0,0],"split_type":[0,0,0,0,0,0,0,0,0],"sum_hessian":[7.5567336E0,2.0063672E0,5.5503664E0,4.1182647E0,1.4321017E0,1.0929098E0,3.025355E0,1.3312037E0,1.6941513E0],"tree_param":{"num_deleted":"0","num_feature":"5","num_nodes":"9","size_leaf_vector":"1"}},{"base_weights":[-1.4382097E-2,2.4904372E-1,-1.7530917E-1,-1.4199182E-2,5.1470693E-2,-4.15636E-2,1.0418159E-1,-2.1582492E-2,4.0786657E-2],"categories":[],"categories_nodes":[],"categories_segments":[],"categories_sizes":[],"default_left":[0,0,0,0,0,0,0,0,0],"id":31,"left_children":[1,3,5,-1,-1,-1,7,-1,-1],"loss_changes":[4.0479097E-1,4.5160487E-1,4.3792635E-1,0E0,0E0,0E0,4.2969793E-1,0E0,0E0],"parents":[2147483647,0,0,1,1,2,2,6,6],"right_children":[2,4,6,-1,-1,-1,8,-1,-1],"split_conditions":[4.576923E-1,3.7E-1,2.2661553E-1,-1.4199182E-2,5.1470693E-2,-4.15636E-2,4.977778E-1,-2.1582492E-2,4.0786657E-2],"split_indices":[2,2,3,0,0,0,2,0,0],"split_type":[0,0,0,0,0,0,0,0,0],"sum_hessian":[7.518786E0,2.6436949E0,4.875091E0,1.2578124E0,1.3858826E0,2.3592846E0,2.5158064E0,1.3658558E0,1.1499506E0],"tree_param":{"num_deleted":"0","num_feature":"5","num_nodes":"9","size_leaf_vector":"1"}},{"base_weights":[-1.1242983E-2,-3.0718317E-2,1.257608E-1,2.7254218E-1,-2.3356225E-2,4.2642873E-2,-4.7199302E-3],"categories":[],"categories_nodes":[],"categories_segments":[],"categories_sizes":[],"default_left":[0,0,0,0,0,0,0],"id":32,"left_children":[1,-1,3,5,-1,-1,-1],"loss_changes":[3.809983E-1,0E0,4.0550423E-1,2.6925826E-1,0E0,0E0,0E0],"parents":[2147483647,0,0,2,2,3,3],"right_children":[2,-1,4,6,-1,-1,-1],"split_conditions":[2.0267382E-1,-3.0718317E-2,5.525E-1,2.2129366E-1,-2.3356225E-2,4.2642873E-2,-4.7199302E-3],"split_indices":[0,0,1,0,0,0,0],"split_type":[0,0,0,0,0,0,0],"sum_hessian":[7.4441323E0,1.9625976E0,5.4815345E0,4.0632377E0,1.4182972E0,2.517795E0,1.5454425E0],"tree_param":{"num_deleted":"0","num_feature":"5","num_nodes":"7","size_leaf_vector":"1"}},{"base_weights":[-1.2054948E-2,2.393664E-1,-1.6592732E-1,-1.3405817E-2,4.941071E-2,-3.981596E-2,1.02407485E-1,-2.0364057E-2,3.9272677E-2],"categories":[],"categories_nodes":[],"categories_segments":[],"categories_sizes":[],"default_left":[0,0,0,0,0,0,0,0,0],"id":33,"left_children":[1,3,5,-1,-1,-1,7,-1,-1],"loss_changes":[3.6525655E-1,4.0908504E-1,4.0286946E-1,0E0,0E0,0E0,3.9017305E-1,0E0,0E0],"parents":[2147483647,0,0,1,1,2,2,6,6],"right_children":[2,4,6,-1,-1,-1,8,-1,-1],"split_conditions":[4.576923E-1,3.7E-1,2.2661553E-1,-1.3405817E-2,4.941071E-2,-3.981596E-2,5.0949454E-1,-2.0364057E-2,3.9272677E-2],"split_indices":[2,2,3,0,0,0,4,0,0],"split_type":[0,0,0,0,0,0,0,0,0],"sum_hessian":[7.414735E0,2.6041083E0,4.8106265E0,1.2481666E0,1.3559419E0,2.3194368E0,2.4911895E0,1.3580875E0,1.1331019E0],"tree_param":{"num_deleted":"0","num_feature":"5","num_nodes":"9","size_leaf_vector":"1"}},{"base_weights":[-9.0866005E-3,2.0208125E-1,-1.9338177E-1,-2.3624808E-2,6.1250996E-2,-6.404383E-2,2.1550803E-1,-1.9120967E-2,5.058368E-2],"categories":[],"categories_nodes":[],"categories_segments":[],"categories_sizes":[],"default_left":[0,0,0,0,0,0,0,0,0],"id":34,"left_children":[1,3,5,-1,-1,-1,7,-1,-1],"loss_changes":[3.6374748E-1,9.321082E-1,1.0457374E0,0E0,0E0,0E0,4.9132597E-1,0E0,0E0],"parents":[2147483647,0,0,1,1,2,2,6,6],"right_children":[2,4,6,-1,-1,-1,8,-1,-1],"split_conditions":[5.058824E-1,4.9746856E-1,2.1213204E-1,-2.3624808E-2,6.1250996E-2,-6.404383E-2,5.184209E-1,-1.9120967E-2,5.058368E-2],"split_indices":[1,4,3,0,0,0,4,0,0],"split_type":[0,0,0,0,0,0,0,0,0],"sum_hessian":[7.342546E0,3.3768258E0,3.9657204E0,1.838129E0,1.5386968E0,1.6239269E0,2.3417935E0,1.1175855E0,1.224208E0],"tree_param":{"num_deleted":"0","num_feature":"5","num_nodes":"9","size_leaf_vector":"1"}},{"base_weights":[-7.5949626E-3,1.1658128E-1,-3.1666607E-2,2.4668542E-1,-2.7604392E-2,4.7612903E-1,-5.4315686E-2,4.4817273E-3,7.1525835E-2,-3.5168435E-2,3.0567506E-2],"categories":[],"categories_nodes":[],"categories_segments":[],"categories_sizes":[],"default_left":[0,0,0,0,0,0,0,0,0,0,0],"id":35,"left_children":[1,3,-1,5,-1,7,9,-1,-1,-1,-1],"loss_changes":[3.534896E-1,4.060179E-1,0E0,4.0548867E-1,0E0,3.0021596E-1,4.5811778E-1,0E0,0E0,0E0,0E0],"parents":[2147483647,0,0,1,1,3,3,5,5,6,6],"right_children":[2,4,-1,6,-1,8,10,-1,-1,-1,-1],"split_conditions":[5.525E-1,5.092857E-1,-3.1666607E-2,5.0166667E-1,-2.7604392E-2,4.834188E-1,5.252336E-1,4.4817273E-3,7.1525835E-2,-3.5168435E-2,3.0567506E-2],"split_indices":[1,2,0,1,0,1,1,0,0,0,0],"split_type":[0,0,0,0,0,0,0,0,0,0,0],"sum_hessian":[7.248518E0,5.615262E0,1.6332563E0,4.4968457E0,1.1184162E0,2.221584E0,2.2752616E0,1.215905E0,1.0056792E0,1.258641E0,1.0166205E0],"tree_param":{"num_deleted":"0","num_feature":"5","num_nodes":"11","size_leaf_vector":"1"}},{"base_weights":[-5.313601E-3,2.402622E-1,-1.572267E-1,-1.0550885E-2,4.6930086E-2,-3.6619133E-1,1.1697727E-1,4.894899E-3,-5.9797913E-2,-1.9530842E-2,3.740279E-2],"categories":[],"categories_nodes":[],"categories_segments":[],"categories_sizes":[],"default_left":[0,0,0,0,0,0,0,0,0,0,0],"id":36,"left_children":[1,3,5,-1,-1,7,9,-1,-1,-1,-1],"loss_changes":[3.428569E-1,3.2835653E-1,3.66966E-1,0E0,0E0,3.614777E-1,3.3027866E-1,0E0,0E0,0E0,0E0],"parents":[2147483647,0,0,1,1,2,2,5,5,6,6],"right_children":[2,4,6,-1,-1,8,10,-1,-1,-1,-1],"split_conditions":[4.576923E-1,3.7E-1,5E-1,-1.0550885E-2,4.6930086E-2,4.9784616E-1,2.2661553E-1,4.894899E-3,-5.9797913E-2,-1.9530842E-2,3.740279E-2],"split_indices":[2,2,2,0,0,1,3,0,0,0,0],"split_type":[0,0,0,0,0,0,0,0,0,0,0],"sum_hessian":[7.177769E0,2.520946E0,4.656823E0,1.2194017E0,1.3015443E0,2.4524193E0,2.204404E0,1.1613032E0,1.2911161E0,1.1037161E0,1.100688E0],"tree_param":{"num_deleted":"0","num_feature":"5","num_nodes":"11","size_leaf_vector":"1"}},{"base_weights":[-4.897495E-3,-1.1494228E-1,3.4701575E-2,7.40927E-2,-4.781353E-2,-3.4580026E-2,3.0479953E-1,5.1263522E-2,4.182397E-3],"categories":[],"categories_nodes":[],"categories_segments":[],"categories_sizes":[],"default_left":[0,0,0,0,0,0,0,0,0],"id":37,"left_children":[1,3,-1,5,-1,-1,7,-1,-1],"loss_changes":[3.5380512E-1,5.109594E-1,0E0,6.3055944E-1,0E0,0E0,1.9883814E-1,0E0,0E0],"parents":[2147483647,0,0,1,1,3,3,6,6],"right_children":[2,4,-1,6,-1,-1,8,-1,-1],"split_conditions":[2.4994443E-1,5.466667E-1,3.4701575E-2,4.834188E-1,-4.781353E-2,-3.4580026E-2,5.0166667E-1,5.1263522E-2,4.182397E-3],"split_indices":[3,1,0,1,0,0,1,0,0],"split_type":[0,0,0,0,0,0,0,0,0],"sum_hessian":[7.1060944E0,5.9262953E0,1.1797992E0,4.421162E0,1.5051334E0,1.3908685E0,3.0302935E0,1.1623201E0,1.8679732E0],"tree_param":{"num_deleted":"0","num_feature":"5","num_nodes":"9","size_leaf_vector":"1"}},{"base_weights":[-3.4724579E-3,2.4010846E-1,-1.5515941E-1,-8.8651255E-3,4.536538E-2,-3.7278423E-1,9.359655E-2,-1.1968104E-2,-4.3873083E-2,-1.8528467E-2,3.597791E-2],"categories":[],"categories_nodes":[],"categories_segments":[],"categories_sizes":[],"default_left":[0,0,0,0,0,0,0,0,0,0,0],"id":38,"left_children":[1,3,5,-1,-1,7,9,-1,-1,-1,-1],"loss_changes":[3.351369E-1,2.8498447E-1,3.367353E-1,0E0,0E0,4.810393E-4,3.19135E-1,0E0,0E0,0E0,0E0],"parents":[2147483647,0,0,1,1,2,2,5,5,6,6],"right_children":[2,4,6,-1,-1,8,10,-1,-1,-1,-1],"split_conditions":[4.576923E-1,3.7E-1,2.2661553E-1,-8.8651255E-3,4.536538E-2,2.0575066E-1,5.0949454E-1,-1.1968104E-2,-4.3873083E-2,-1.8528467E-2,3.597791E-2],"split_indices":[2,2,3,0,0,3,4,0,0,0,0],"split_type":[0,0,0,0,0,0,0,0,0,0,0],"sum_hessian":[7.0621796E0,2.4864633E0,4.5757165E0,1.2094054E0,1.2770578E0,2.1746361E0,2.4010804E0,1.0313046E0,1.1433314E0,1.3209896E0,1.0800906E0],"tree_param":{"num_deleted":"0","num_feature":"5","num_nodes":"11","size_leaf_vector":"1"}},{"base_weights":[-3.344474E-3,-2.865093E-2,1.256378E-1,2.6273772E-1,-2.0979121E-2,-9.464839E-3,3.838318E-1,5.6600876E-2,7.0053944E-3],"categories":[],"categories_nodes":[],"categories_segments":[],"categories_sizes":[],"default_left":[0,0,0,0,0,0,0,0,0],"id":39,"left_children":[1,-1,3,5,-1,-1,7,-1,-1],"loss_changes":[3.2812354E-1,0E0,3.3980167E-1,2.4571848E-1,0E0,0E0,1.7823422E-1,0E0,0E0],"parents":[2147483647,0,0,2,2,3,3,6,6],"right_children":[2,-1,4,6,-1,-1,8,-1,-1],"split_conditions":[2.0267382E-1,-2.865093E-2,5.525E-1,4.8157895E-1,-2.0979121E-2,-9.464839E-3,5.019608E-1,5.6600876E-2,7.0053944E-3],"split_indices":[0,0,1,1,0,0,4,0,0],"split_type":[0,0,0,0,0,0,0,0,0],"sum_hessian":[6.9983907E0,1.8079498E0,5.1904407E0,3.8383164E0,1.3521242E0,1.0266737E0,2.811643E0,1.2702777E0,1.5413651E0],"tree_param":{"num_deleted":"0","num_feature":"5","num_nodes":"9","size_leaf_vector":"1"}},{"base_weights":[-2.396184E-3,-1.1070078E-1,3.3742778E-2,7.077173E-2,-4.583489E-2,-3.1416543E-2,2.814652E-1,4.8604667E-2,2.86742E-3],"categories":[],"categories_nodes":[],"categories_segments":[],"categories_sizes":[],"default_left":[0,0,0,0,0,0,0,0,0],"id":40,"left_children":[1,3,-1,5,-1,-1,7,-1,-1],"loss_changes":[3.304081E-1,4.6087608E-1,0E0,5.2056134E-1,0E0,0E0,1.914224E-1,0E0,0E0],"parents":[2147483647,0,0,1,1,3,3,6,6],"right_children":[2,4,-1,6,-1,-1,8,-1,-1],"split_conditions":[2.4994443E-1,5.466667E-1,3.3742778E-2,4.834188E-1,-4.583489E-2,-3.1416543E-2,5.0166667E-1,4.8604667E-2,2.86742E-3],"split_indices":[3,1,0,1,0,0,1,0,0],"split_type":[0,0,0,0,0,0,0,0,0],"sum_hessian":[6.962467E0,5.7910533E0,1.171414E0,4.328172E0,1.4628811E0,1.3572937E0,2.9708786E0,1.1320219E0,1.8388566E0],"tree_param":{"num_deleted":"0","num_feature":"5","num_nodes":"9","size_leaf_vector":"1"}},{"base_weights":[-1.1640302E-3,2.4532436E-1,-1.5618509E-1,-7.2033624E-3,4.447506E-2,-3.5430908E-1,1.0844719E-1,5.0571896E-3,-5.733199E-2,-1.8891696E-2,3.5137363E-2],"categories":[],"categories_nodes":[],"categories_segments":[],"categories_sizes":[],"default_left":[0,0,0,0,0,0,0,0,0,0,0],"id":41,"left_children":[1,3,5,-1,-1,7,9,-1,-1,-1,-1],"loss_changes":[3.4093985E-1,2.5018376E-1,3.2537454E-1,0E0,0E0,3.2730508E-1,2.9095742E-1,0E0,0E0,0E0,0E0],"parents":[2147483647,0,0,1,1,2,2,5,5,6,6],"right_children":[2,4,6,-1,-1,8,10,-1,-1,-1,-1],"split_conditions":[4.576923E-1,3.7E-1,5E-1,-7.2033624E-3,4.447506E-2,4.9784616E-1,2.2661553E-1,5.0571896E-3,-5.733199E-2,-1.8891696E-2,3.5137363E-2],"split_indices":[2,2,2,0,0,1,3,0,0,0,0],"split_type":[0,0,0,0,0,0,0,0,0,0,0],"sum_hessian":[6.9198327E0,2.4468079E0,4.473025E0,1.1907296E0,1.2560782E0,2.36416E0,2.1088648E0,1.0998951E0,1.264265E0,1.0481554E0,1.0607094E0],"tree_param":{"num_deleted":"0","num_feature":"5","num_nodes":"11","size_leaf_vector":"1"}},{"base_weights":[-8.955509E-4,2.3351279E-1,-1.483869E-1,-6.8173767E-3,4.247814E-2,-3.5768833E-2,8.995038E-2,-1.7672934E-2,3.4570817E-2],"categories":[],"categories_nodes":[],"categories_segments":[],"categories_sizes":[],"default_left":[0,0,0,0,0,0,0,0,0],"id":42,"left_children":[1,3,5,-1,-1,-1,7,-1,-1],"loss_changes":[3.0611035E-1,2.2635745E-1,3.03087E-1,0E0,0E0,0E0,2.887891E-1,0E0,0E0],"parents":[2147483647,0,0,1,1,2,2,6,6],"right_children":[2,4,6,-1,-1,-1,8,-1,-1],"split_conditions":[4.576923E-1,3.7E-1,2.2661553E-1,-6.8173767E-3,4.247814E-2,-3.5768833E-2,5.0949454E-1,-1.7672934E-2,3.4570817E-2],"split_indices":[2,2,3,0,0,0,4,0,0],"split_type":[0,0,0,0,0,0,0,0,0],"sum_hessian":[6.8517504E0,2.4209301E0,4.4308205E0,1.1890388E0,1.2318914E0,2.092488E0,2.3383322E0,1.2959925E0,1.0423397E0],"tree_param":{"num_deleted":"0","num_feature":"5","num_nodes":"9","size_leaf_vector":"1"}},{"base_weights":[1.380739E-3,-1.0446495E-1,3.2882977E-2,7.103324E-2,-4.373529E-2,-3.088268E-2,2.789978E-1,4.7436114E-2,2.978288E-3],"categories":[],"categories_nodes":[],"categories_segments":[],"categories_sizes":[],"default_left":[0,0,0,0,0,0,0,0,0],"id":43,"left_children":[1,3,-1,5,-1,-1,7,-1,-1],"loss_changes":[3.0435896E-1,4.1934896E-1,0E0,4.9791253E-1,0E0,0E0,1.7543992E-1,0E0,0E0],"parents":[2147483647,0,0,1,1,3,3,6,6],"right_children":[2,4,-1,6,-1,-1,8,-1,-1],"split_conditions":[2.4994443E-1,5.466667E-1,3.2882977E-2,4.834188E-1,-4.373529E-2,-3.088268E-2,5.0166667E-1,4.7436114E-2,2.978288E-3],"split_indices":[3,1,0,1,0,0,1,0,0],"split_type":[0,0,0,0,0,0,0,0,0],"sum_hessian":[6.7903934E0,5.6462536E0,1.1441399E0,4.212201E0,1.4340527E0,1.3186355E0,2.8935654E0,1.1156046E0,1.7779608E0],"tree_param":{"num_deleted":"0","num_feature":"5","num_nodes":"9","size_leaf_vector":"1"}},{"base_weights":[2.37032E-3,2.3302585E-1,-1.4393198E-1,-5.468749E-3,4.1143026E-2,-3.2906893E-1,1.0449086E-1,5.8936207E-3,-5.4262944E-2,-1.704986E-2,3.273641E-2],"categories":[],"categories_nodes":[],"categories_segments":[],"categories_sizes":[],"default_left":[0,0,0,0,0,0,0,0,0,0,0],"id":44,"left_children":[1,3,5,-1,-1,7,9,-1,-1,-1,-1],"loss_changes":[2.950167E-1,1.9646154E-1,2.8087488E-1,0E0,0E0,3.0640885E-1,2.4259187E-1,0E0,0E0,0E0,0E0],"parents":[2147483647,0,0,1,1,2,2,5,5,6,6],"right_children":[2,4,6,-1,-1,8,10,-1,-1,-1,-1],"split_conditions":[4.576923E-1,3.7E-1,5E-1,-5.468749E-3,4.1143026E-2,4.9784616E-1,2.2661553E-1,5.8936207E-3,-5.4262944E-2,-1.704986E-2,3.273641E-2],"split_indices":[2,2,2,0,0,1,3,0,0,0,0],"split_type":[0,0,0,0,0,0,0,0,0,0,0],"sum_hessian":[6.74851E0,2.3891242E0,4.3593855E0,1.1798459E0,1.2092781E0,2.3118494E0,2.0475364E0,1.0777612E0,1.2340883E0,1.0217991E0,1.0257372E0],"tree_param":{"num_deleted":"0","num_feature":"5","num_nodes":"11","size_leaf_vector":"1"}},{"base_weights":[2.5387583E-3,-1.971321E-1,1.7411332E-1,2.4143709E-2,-5.817916E-2,-2.6545152E-2,3.6941305E-1,5.1482923E-2,3.1131522E-3],"categories":[],"categories_nodes":[],"categories_segments":[],"categories_sizes":[],"default_left":[0,0,0,0,0,0,0,0,0],"id":45,"left_children":[1,3,5,-1,-1,-1,7,-1,-1],"loss_changes":[2.9760638E-1,8.18772E-1,4.9848688E-1,0E0,0E0,0E0,1.6340631E-1,0E0,0E0],"parents":[2147483647,0,0,1,1,2,2,6,6],"right_children":[2,4,6,-1,-1,-1,8,-1,-1],"split_conditions":[2.1213204E-1,5.058824E-1,4.732143E-1,2.4143709E-2,-5.817916E-2,-2.6545152E-2,2.322049E-1,5.1482923E-2,3.1131522E-3],"split_indices":[3,1,1,0,0,0,0,0,0],"split_type":[0,0,0,0,0,0,0,0,0],"sum_hessian":[6.6852026E0,3.0207868E0,3.6644158E0,1.5854607E0,1.435326E0,1.0167643E0,2.6476517E0,1.4866806E0,1.1609709E0],"tree_param":{"num_deleted":"0","num_feature":"5","num_nodes":"9","size_leaf_vector":"1"}},{"base_weights":[1.491992E-3,2.3330787E-1,-1.4498541E-1,-3.9768345E-3,3.9667316E-2,-3.4147006E-2,8.059721E-2,-1.572525E-2,3.0951068E-2],"categories":[],"categories_nodes":[],"categories_segments":[],"categories_sizes":[],"default_left":[0,0,0,0,0,0,0,0,0],"id":46,"left_children":[1,3,5,-1,-1,-1,7,-1,-1],"loss_changes":[2.9281303E-1,1.646225E-1,2.6202077E-1,0E0,0E0,0E0,2.26821E-1,0E0,0E0],"parents":[2147483647,0,0,1,1,2,2,6,6],"right_children":[2,4,6,-1,-1,-1,8,-1,-1],"split_conditions":[4.576923E-1,3.7E-1,2.2661553E-1,-3.9768345E-3,3.9667316E-2,-3.4147006E-2,4.977778E-1,-1.572525E-2,3.0951068E-2],"split_indices":[2,2,3,0,0,0,2,0,0],"split_type":[0,0,0,0,0,0,0,0,0],"sum_hessian":[6.627178E0,2.3365505E0,4.2906275E0,1.1577914E0,1.1787591E0,2.018644E0,2.2719834E0,1.2677705E0,1.0042129E0],"tree_param":{"num_deleted":"0","num_feature":"5","num_nodes":"9","size_leaf_vector":"1"}},{"base_weights":[3.5993983E-3,-1.01885214E-1,3.2224923E-2,5.8845636E-2,-4.0137466E-2,-3.0631913E-2,2.622236E-1,4.4924665E-2,2.1454412E-3],"categories":[],"categories_nodes":[],"categories_segments":[],"categories_sizes":[],"default_left":[0,0,0,0,0,0,0,0,0],"id":47,"left_children":[1,3,-1,5,-1,-1,7,-1,-1],"loss_changes":[2.8731474E-1,3.3400056E-1,0E0,4.567132E-1,0E0,0E0,1.6119969E-1,0E0,0E0],"parents":[2147483647,0,0,1,1,3,3,6,6],"right_children":[2,4,-1,6,-1,-1,8,-1,-1],"split_conditions":[2.4994443E-1,5.466667E-1,3.2224923E-2,4.834188E-1,-4.0137466E-2,-3.0631913E-2,5.0166667E-1,4.4924665E-2,2.1454412E-3],"split_indices":[3,1,0,1,0,0,1,0,0],"split_type":[0,0,0,0,0,0,0,0,0],"sum_hessian":[6.571026E0,5.44785E0,1.1231757E0,4.06809E0,1.3797605E0,1.2741675E0,2.7939224E0,1.0851365E0,1.7087859E0],"tree_param":{"num_deleted":"0","num_feature":"5","num_nodes":"9","size_leaf_vector":"1"}},{"base_weights":[4.3923478E-3,2.321958E-1,-1.4070164E-1,-2.9067586E-3,3.84848E-2,-3.282384E-2,7.459342E-2,2.461481E-2,-1.5277567E-2],"categories":[],"categories_nodes":[],"categories_segments":[],"categories_sizes":[],"default_left":[0,0,0,0,0,0,0,0,0],"id":48,"left_children":[1,3,5,-1,-1,-1,7,-1,-1],"loss_changes":[2.8160346E-1,1.4310814E-1,2.3539074E-1,0E0,0E0,0E0,1.64245E-1,0E0,0E0],"parents":[2147483647,0,0,1,1,2,2,6,6],"right_children":[2,4,6,-1,-1,-1,8,-1,-1],"split_conditions":[4.576923E-1,3.7E-1,2.2661553E-1,-2.9067586E-3,3.84848E-2,-3.282384E-2,2.322049E-1,2.461481E-2,-1.5277567E-2],"split_indices":[2,2,3,0,0,0,0,0,0],"split_type":[0,0,0,0,0,0,0,0,0],"sum_hessian":[6.531352E0,2.3077607E0,4.2235913E0,1.1496773E0,1.1580836E0,1.9769418E0,2.2466493E0,1.2334177E0,1.0132316E0],"tree_param":{"num_deleted":"0","num_feature":"5","num_nodes":"9","size_leaf_vector":"1"}},{"base_weights":[5.616165E-3,-2.656496E-2,1.2618877E-1,2.5103146E-1,-1.8239278E-2,4.019306E-2,-6.0526E-3],"categories":[],"categories_nodes":[],"categories_segments":[],"categories_sizes":[],"default_left":[0,0,0,0,0,0,0],"id":49,"left_children":[1,-1,3,5,-1,-1,-1],"loss_changes":[2.782767E-1,0E0,2.7148014E-1,2.4020723E-1,0E0,0E0,0E0],"parents":[2147483647,0,0,2,2,3,3],"right_children":[2,-1,4,6,-1,-1,-1],"split_conditions":[2.0267382E-1,-2.656496E-2,5.525E-1,2.2129366E-1,-1.8239278E-2,4.019306E-2,-6.0526E-3],"split_indices":[0,0,1,0,0,0,0],"split_type":[0,0,0,0,0,0,0],"sum_hessian":[6.483202E0,1.6246996E0,4.8585024E0,3.5918489E0,1.2666537E0,2.2244124E0,1.3674364E0],"tree_param":{"num_deleted":"0","num_feature":"5","num_nodes":"7","size_leaf_vector":"1"}},{"base_weights":[3.6697967E-3,-9.963146E-2,3.1169957E-2,5.2323427E-2,-3.8142707E-2,-2.5839958E-2,2.7753028E-1,5.0781555E-2,-8.3351405E-3],"categories":[],"categories_nodes":[],"categories_segments":[],"categories_sizes":[],"default_left":[0,0,0,0,0,0,0,0,0],"id":50,"left_children":[1,3,-1,5,-1,-1,7,-1,-1],"loss_changes":[2.6831573E-1,2.9150486E-1,0E0,4.2155012E-1,0E0,0E0,3.232799E-1,0E0,0E0],"parents":[2147483647,0,0,1,1,3,3,6,6],"right_children":[2,4,-1,6,-1,-1,8,-1,-1],"split_conditions":[2.4994443E-1,5.466667E-1,3.1169957E-2,4.9746856E-1,-3.8142707E-2,-2.5839958E-2,5.058824E-1,5.0781555E-2,-8.3351405E-3],"split_indices":[3,1,0,4,0,0,1,0,0],"split_type":[0,0,0,0,0,0,0,0,0],"sum_hessian":[6.4563694E0,5.341567E0,1.1148022E0,3.9993093E0,1.3422577E0,1.618643E0,2.3806663E0,1.2047443E0,1.1759219E0],"tree_param":{"num_deleted":"0","num_feature":"5","num_nodes":"9","size_leaf_vector":"1"}},{"base_weights":[4.6804613E-3,2.2819935E-1,-1.3800468E-1,-2.0119795E-3,3.7044175E-2,-3.057945E-1,9.321279E-3,5.159158E-3,-5.2150946E-2],"categories":[],"categories_nodes":[],"categories_segments":[],"categories_sizes":[],"default_left":[0,0,0,0,0,0,0,0,0],"id":51,"left_children":[1,3,5,-1,-1,7,-1,-1,-1],"loss_changes":[2.676333E-1,1.2266387E-1,2.2800921E-1,0E0,0E0,2.7464974E-1,0E0,0E0,0E0],"parents":[2147483647,0,0,1,1,2,2,5,5],"right_children":[2,4,6,-1,-1,8,-1,-1,-1],"split_conditions":[4.576923E-1,3.7E-1,5E-1,-2.0119795E-3,3.7044175E-2,4.9321944E-1,9.321279E-3,5.159158E-3,-5.2150946E-2],"split_indices":[2,2,2,0,0,4,0,0,0],"split_type":[0,0,0,0,0,0,0,0,0],"sum_hessian":[6.4041967E0,2.2617705E0,4.142426E0,1.1364207E0,1.1253498E0,2.213554E0,1.9288723E0,1.1195583E0,1.0939956E0],"tree_param":{"num_deleted":"0","num_feature":"5","num_nodes":"9","size_leaf_vector":"1"}},{"base_weights":[3.8455713E-3,-1.8816945E-1,1.6553642E-1,2.1998838E-2,-5.4241937E-2,-1.1749561E-2,4.3005694E-2],"categories":[],"categories_nodes":[],"categories_segments":[],"categories_sizes":[],"default_left":[0,0,0,0,0,0,0],"id":52,"left_children":[1,3,5,-1,-1,-1,-1],"loss_changes":[2.5962105E-1,6.73395E-1,3.8944805E-1,0E0,0E0,0E0,0E0],"parents":[2147483647,0,0,1,1,2,2],"right_children":[2,4,6,-1,-1,-1,-1],"split_conditions":[2.1213204E-1,5.058824E-1,5.252336E-1,2.1998838E-2,-5.4241937E-2,-1.1749561E-2,4.3005694E-2],"split_indices":[3,1,1,0,0,0,0],"split_type":[0,0,0,0,0,0,0],"sum_hessian":[6.3588963E0,2.8320048E0,3.5268915E0,1.4919825E0,1.3400223E0,1.9723405E0,1.5545509E0],"tree_param":{"num_deleted":"0","num_feature":"5","num_nodes":"7","size_leaf_vector":"1"}},{"base_weights":[3.299671E-3,2.2580118E-1,-1.3755728E-1,-1.2595557E-3,3.585774E-2,-3.2106023E-2,6.482491E-2,-2.5111202E-2,3.514052E-2],"categories":[],"categories_nodes":[],"categories_segments":[],"categories_sizes":[],"default_left":[0,0,0,0,0,0,0,0,0],"id":53,"left_children":[1,3,5,-1,-1,-1,7,-1,-1],"loss_changes":[2.604036E-1,1.0629159E-1,2.1030417E-1,0E0,0E0,0E0,3.8326108E-1,0E0,0E0],"parents":[2147483647,0,0,1,1,2,2,6,6],"right_children":[2,4,6,-1,-1,-1,8,-1,-1],"split_conditions":[4.576923E-1,3.7E-1,4.9746856E-1,-1.2595557E-3,3.585774E-2,-3.2106023E-2,5.041453E-1,-2.5111202E-2,3.514052E-2],"split_indices":[2,2,4,0,0,0,2,0,0],"split_type":[0,0,0,0,0,0,0,0,0],"sum_hessian":[6.317694E0,2.215297E0,4.1023974E0,1.1162435E0,1.0990535E0,1.844005E0,2.2583923E0,1.1330448E0,1.1253474E0],"tree_param":{"num_deleted":"0","num_feature":"5","num_nodes":"9","size_leaf_vector":"1"}},{"base_weights":[4.743879E-3,-1.8536653E-1,1.6347887E-1,2.0843355E-2,-5.2422285E-2,-1.0099209E-2,4.0830906E-2],"categories":[],"categories_nodes":[],"categories_segments":[],"categories_sizes":[],"default_left":[0,0,0,0,0,0,0],"id":54,"left_children":[1,3,5,-1,-1,-1,-1],"loss_changes":[2.4981369E-1,6.134796E-1,3.3232254E-1,0E0,0E0,0E0,0E0],"parents":[2147483647,0,0,1,1,2,2],"right_children":[2,4,6,-1,-1,-1,-1],"split_conditions":[2.1213204E-1,5.058824E-1,5.252336E-1,2.0843355E-2,-5.2422285E-2,-1.0099209E-2,4.0830906E-2],"split_indices":[3,1,1,0,0,0,0],"split_type":[0,0,0,0,0,0,0],"sum_hessian":[6.2740474E0,2.7785354E0,3.4955118E0,1.4630966E0,1.3154389E0,1.9627779E0,1.532734E0],"tree_param":{"num_deleted":"0","num_feature":"5","num_nodes":"7","size_leaf_vector":"1"}},{"base_weights":[4.1324575E-3,2.2361295E-1,-1.3411643E-1,-5.76287E-4,3.47637E-2,-3.0956319E-2,6.572575E-2,-8.867704E-3,1.8906537E-2],"categories":[],"categories_nodes":[],"categories_segments":[],"categories_sizes":[],"default_left":[0,0,0,0,0,0,0,0,0],"id":55,"left_children":[1,3,5,-1,-1,-1,7,-1,-1],"loss_changes":[2.4950357E-1,9.220493E-2,1.9788718E-1,0E0,0E0,0E0,7.755652E-2,0E0,0E0],"parents":[2147483647,0,0,1,1,2,2,6,6],"right_children":[2,4,6,-1,-1,-1,8,-1,-1],"split_conditions":[4.576923E-1,3.7E-1,2.2661553E-1,-5.76287E-4,3.47637E-2,-3.0956319E-2,5E-1,-8.867704E-3,1.8906537E-2],"split_indices":[2,2,3,0,0,0,4,0,0],"split_type":[0,0,0,0,0,0,0,0,0],"sum_hessian":[6.234416E0,2.1707387E0,4.0636773E0,1.0964493E0,1.0742894E0,1.871553E0,2.1921244E0,1.0982778E0,1.0938464E0],"tree_param":{"num_deleted":"0","num_feature":"5","num_nodes":"9","size_leaf_vector":"1"}},{"base_weights":[5.5966447E-3,-1.7745149E-1,1.5698175E-1,2.5193423E-2,-4.6227515E-2,-8.823126E-3,3.8203284E-2],"categories":[],"categories_nodes":[],"categories_segments":[],"categories_sizes":[],"default_left":[0,0,0,0,0,0,0],"id":56,"left_children":[1,3,5,-1,-1,-1,-1],"loss_changes":[2.2720169E-1,5.7211846E-1,2.8027773E-1,0E0,0E0,0E0,0E0],"parents":[2147483647,0,0,1,1,2,2],"right_children":[2,4,6,-1,-1,-1,-1],"split_conditions":[2.1213204E-1,5.0166667E-1,5.252336E-1,2.5193423E-2,-4.6227515E-2,-8.823126E-3,3.8203284E-2],"split_indices":[3,1,1,0,0,0,0],"split_type":[0,0,0,0,0,0,0],"sum_hessian":[6.193777E0,2.7257435E0,3.4680338E0,1.133065E0,1.5926784E0,1.950616E0,1.5174177E0],"tree_param":{"num_deleted":"0","num_feature":"5","num_nodes":"7","size_leaf_vector":"1"}},{"base_weights":[6.205843E-3,2.2210076E-1,-1.297433E-1,-7.155249E-5,3.3937193E-2,-3.0406848E-2,6.445473E-2,-2.3469398E-2,3.3802524E-2],"categories":[],"categories_nodes":[],"categories_segments":[],"categories_sizes":[],"default_left":[0,0,0,0,0,0,0,0,0],"id":57,"left_children":[1,3,5,-1,-1,-1,7,-1,-1],"loss_changes":[2.3885888E-1,8.213085E-2,1.8962592E-1,0E0,0E0,0E0,3.4128818E-1,0E0,0E0],"parents":[2147483647,0,0,1,1,2,2,6,6],"right_children":[2,4,6,-1,-1,-1,8,-1,-1],"split_conditions":[4.576923E-1,3.7E-1,4.9746856E-1,-7.155249E-5,3.3937193E-2,-3.0406848E-2,5.041453E-1,-2.3469398E-2,3.3802524E-2],"split_indices":[2,2,4,0,0,0,2,0,0],"split_type":[0,0,0,0,0,0,0,0,0],"sum_hessian":[6.1563067E0,2.1338797E0,4.0224266E0,1.0785407E0,1.0553391E0,1.8215321E0,2.2008948E0,1.1191809E0,1.0817138E0],"tree_param":{"num_deleted":"0","num_feature":"5","num_nodes":"9","size_leaf_vector":"1"}},{"base_weights":[7.5884215E-3,1.1726804E-1,-2.6155597E-2,-1.8695014E-2,2.496038E-1,3.8348537E-2,-3.3118469E-3],"categories":[],"categories_nodes":[],"categories_segments":[],"categories_sizes":[],"default_left":[0,0,0,0,0,0,0],"id":58,"left_children":[1,3,-1,-1,5,-1,-1],"loss_changes":[2.4072358E-1,2.7798808E-1,0E0,0E0,1.80471E-1,0E0,0E0],"parents":[2147483647,0,0,1,1,4,4],"right_children":[2,4,-1,-1,6,-1,-1],"split_conditions":[5.525E-1,1.9937988E-1,-2.6155597E-2,-1.8695014E-2,2.2129366E-1,3.8348537E-2,-3.3118469E-3],"split_indices":[1,0,0,0,0,0,0],"split_type":[0,0,0,0,0,0,0],"sum_hessian":[6.1156464E0,4.7459197E0,1.3697269E0,1.3135614E0,3.432358E0,2.087453E0,1.3449051E0],"tree_param":{"num_deleted":"0","num_feature":"5","num_nodes":"7","size_leaf_vector":"1"}},{"base_weights":[5.4923673E-3,-9.301953E-2,2.8502975E-2,1.1133095E-1,-3.053312E-1,5.4638345E-2,-2.8345136E-2,-4.5207582E-2,-2.6432958E-3],"categories":[],"categories_nodes":[],"categories_segments":[],"categories_sizes":[],"default_left":[0,0,0,0,0,0,0,0,0],"id":59,"left_children":[1,3,-1,5,7,-1,-1,-1,-1],"loss_changes":[2.2172268E-1,2.9411542E-1,0E0,8.054409E-1,1.1933082E-1,0E0,0E0,0E0,0E0],"parents":[2147483647,0,0,1,1,3,3,4,4],"right_children":[2,4,-1,6,8,-1,-1,-1,-1],"split_conditions":[2.4994443E-1,4.8268908E-1,2.8502975E-2,5.019608E-1,4.9991667E-1,5.4638345E-2,-2.8345136E-2,-4.5207582E-2,-2.6432958E-3],"split_indices":[3,2,0,4,4,0,0,0,0],"split_type":[0,0,0,0,0,0,0,0,0],"sum_hessian":[6.0887885E0,4.995544E0,1.0932446E0,2.7878535E0,2.2076907E0,1.1435939E0,1.6442596E0,1.0397061E0,1.1679845E0],"tree_param":{"num_deleted":"0","num_feature":"5","num_nodes":"9","size_leaf_vector":"1"}},{"base_weights":[5.9974E-3,2.159434E-1,-1.265253E-1,-2.787041E-4,3.313899E-2,-2.7844438E-1,8.577146E-3,4.52036E-3,-4.759794E-2],"categories":[],"categories_nodes":[],"categories_segments":[],"categories_sizes":[],"default_left":[0,0,0,0,0,0,0,0,0],"id":60,"left_children":[1,3,5,-1,-1,7,-1,-1,-1],"loss_changes":[2.2325622E-1,7.906595E-2,1.8345585E-1,0E0,0E0,2.2094838E-1,0E0,0E0,0E0],"parents":[2147483647,0,0,1,1,2,2,5,5],"right_children":[2,4,6,-1,-1,8,-1,-1,-1],"split_conditions":[4.576923E-1,3.7E-1,5E-1,-2.787041E-4,3.313899E-2,4.9321944E-1,8.577146E-3,4.52036E-3,-4.759794E-2],"split_indices":[2,2,2,0,0,4,0,0,0],"split_type":[0,0,0,0,0,0,0,0,0],"sum_hessian":[6.042255E0,2.0945425E0,3.9477124E0,1.0607169E0,1.0338256E0,2.1194546E0,1.8282577E0,1.0955806E0,1.0238742E0],"tree_param":{"num_deleted":"0","num_feature":"5","num_nodes":"9","size_leaf_vector":"1"}},{"base_weights":[5.1631955E-3,1.1081783E-1,-2.5101885E-2,-3.7784923E-2,3.917145E-2,1.823935E-1,-3.7186917E-2,-1.3910301E-2,4.6542343E-2],"categories":[],"categories_nodes":[],"categories_segments":[],"categories_sizes":[],"default_left":[0,0,0,0,0,0,0,0,0],"id":61,"left_children":[1,3,-1,5,-1,7,-1,-1,-1],"loss_changes":[2.173835E-1,2.50741E-1,0E0,4.0683475E-1,0E0,3.7856314E-1,0E0,0E0,0E0],"parents":[2147483647,0,0,1,1,3,3,5,5],"right_children":[2,4,-1,6,-1,8,-1,-1,-1],"split_conditions":[5.525E-1,5.252336E-1,-2.5101885E-2,5.0166667E-1,3.917145E-2,4.9746856E-1,-3.7186917E-2,-1.3910301E-2,4.6542343E-2],"split_indices":[1,1,0,1,0,4,0,0,0],"split_type":[0,0,0,0,0,0,0,0,0],"sum_hessian":[6.003636E0,4.652342E0,1.3512939E0,3.6087105E0,1.0436313E0,2.4488463E0,1.1598643E0,1.384594E0,1.0642524E0],"tree_param":{"num_deleted":"0","num_feature":"5","num_nodes":"9","size_leaf_vector":"1"}},{"base_weights":[6.1340295E-3,-9.29809E-2,2.8258657E-2,9.839302E-2,-2.891715E-1,5.1643576E-2,-2.7726147E-2,-4.3195512E-2,-1.9981654E-3],"categories":[],"categories_nodes":[],"categories_segments":[],"categories_sizes":[],"default_left":[0,0,0,0,0,0,0,0,0],"id":62,"left_children":[1,3,-1,5,7,-1,-1,-1,-1],"loss_changes":[2.1640788E-1,2.4847728E-1,0E0,7.2621757E-1,1.1234769E-1,0E0,0E0,0E0,0E0],"parents":[2147483647,0,0,1,1,3,3,4,4],"right_children":[2,4,-1,6,8,-1,-1,-1,-1],"split_conditions":[2.4994443E-1,4.8268908E-1,2.8258657E-2,5.019608E-1,4.9991667E-1,5.1643576E-2,-2.7726147E-2,-4.3195512E-2,-1.9981654E-3],"split_indices":[3,2,0,4,4,0,0,0,0],"split_type":[0,0,0,0,0,0,0,0,0],"sum_hessian":[5.9390044E0,4.8601775E0,1.0788269E0,2.7126288E0,2.1475484E0,1.1065049E0,1.6061239E0,1.0081546E0,1.1393938E0],"tree_param":{"num_deleted":"0","num_feature":"5","num_nodes":"9","size_leaf_vector":"1"}},{"base_weights":[6.600066E-3,-1.0988827E-1,2.4871724E-2,1.7244357E-1,-4.0332288E-2,4.798245E-2,-1.7179558E-2],"categories":[],"categories_nodes":[],"categories_segments":[],"categories_sizes":[],"default_left":[0,0,0,0,0,0,0],"id":63,"left_children":[1,3,-1,5,-1,-1,-1],"loss_changes":[2.2178164E-1,5.1264864E-1,0E0,4.4497693E-1,0E0,0E0,0E0],"parents":[2147483647,0,0,1,1,3,3],"right_children":[2,4,-1,6,-1,-1,-1],"split_conditions":[5.301659E-1,5.058824E-1,2.4871724E-2,4.8268908E-1,-4.0332288E-2,4.798245E-2,-1.7179558E-2],"split_indices":[4,1,0,2,0,0,0],"split_type":[0,0,0,0,0,0,0],"sum_hessian":[5.8944736E0,4.348461E0,1.5460123E0,2.4262962E0,1.9221649E0,1.0736943E0,1.352602E0],"tree_param":{"num_deleted":"0","num_feature":"5","num_nodes":"7","size_leaf_vector":"1"}},{"base_weights":[8.241953E-3,1.1250766E-1,-2.4249181E-2,-1.78949E-2,2.4007565E-1,3.686672E-2,-3.2665618E-3],"categories":[],"categories_nodes":[],"categories_segments":[],"categories_sizes":[],"default_left":[0,0,0,0,0,0,0],"id":64,"left_children":[1,3,-1,-1,5,-1,-1],"loss_changes":[2.064067E-1,2.4828756E-1,0E0,0E0,1.6173902E-1,0E0,0E0],"parents":[2147483647,0,0,1,1,4,4],"right_children":[2,4,-1,-1,6,-1,-1],"split_conditions":[5.525E-1,1.9937988E-1,-2.4249181E-2,-1.78949E-2,2.2129366E-1,3.686672E-2,-3.2665618E-3],"split_indices":[1,0,0,0,0,0,0],"split_type":[0,0,0,0,0,0,0],"sum_hessian":[5.851737E0,4.522413E0,1.3293244E0,1.2541842E0,3.2682285E0,1.9820328E0,1.2861958E0],"tree_param":{"num_deleted":"0","num_feature":"5","num_nodes":"7","size_leaf_vector":"1"}},{"base_weights":[6.218147E-3,-1.0826774E-1,2.4215193E-2,1.8270358E-1,-3.57572E-1,2.8525824E-2,-1.0060606E-3,-1.05524175E-2,-4.4357207E-2],"categories":[],"categories_nodes":[],"categories_segments":[],"categories_sizes":[],"default_left":[0,0,0,0,0,0,0,0,0],"id":65,"left_children":[1,3,-1,5,7,-1,-1,-1,-1],"loss_changes":[2.1058126E-1,4.488192E-1,0E0,6.417824E-2,2.223754E-2,0E0,0E0,0E0,0E0],"parents":[2147483647,0,0,1,1,3,3,4,4],"right_children":[2,4,-1,6,8,-1,-1,-1,-1],"split_conditions":[5.301659E-1,5.0166667E-1,2.4215193E-2,4.8566666E-1,4.6064517E-1,2.8525824E-2,-1.0060606E-3,-1.05524175E-2,-4.4357207E-2],"split_indices":[4,1,0,2,2,0,0,0,0],"split_type":[0,0,0,0,0,0,0,0,0],"sum_hessian":[5.825494E0,4.2865653E0,1.5389283E0,2.1012604E0,2.185305E0,1.0583603E0,1.0429001E0,1.1225057E0,1.0627993E0],"tree_param":{"num_deleted":"0","num_feature":"5","num_nodes":"9","size_leaf_vector":"1"}},{"base_weights":[5.105864E-3,-1.7226262E-1,1.4869381E-1,1.8944968E-2,-4.7541507E-2,-8.1957495E-3,3.5874333E-2],"categories":[],"categories_nodes":[],"categories_segments":[],"categories_sizes":[],"default_left":[0,0,0,0,0,0,0],"id":66,"left_children":[1,3,5,-1,-1,-1,-1],"loss_changes":[1.9867127E-1,4.742106E-1,2.3733386E-1,0E0,0E0,0E0,0E0],"parents":[2147483647,0,0,1,1,2,2],"right_children":[2,4,6,-1,-1,-1,-1],"split_conditions":[2.1213204E-1,5.058824E-1,5.252336E-1,1.8944968E-2,-4.7541507E-2,-8.1957495E-3,3.5874333E-2],"split_indices":[3,1,1,0,0,0,0],"split_type":[0,0,0,0,0,0,0],"sum_hessian":[5.7950783E0,2.503233E0,3.291845E0,1.3123931E0,1.1908398E0,1.8596346E0,1.4322106E0],"tree_param":{"num_deleted":"0","num_feature":"5","num_nodes":"7","size_leaf_vector":"1"}},{"base_weights":[4.447501E-3,2.0896198E-2,-1.2537311E-1,-3.0441001E-2,7.632605E-2,-1.9765044E-2,3.1611517E-2],"categories":[],"categories_nodes":[],"categories_segments":[],"categories_sizes":[],"default_left":[0,0,0,0,0,0,0],"id":67,"left_children":[1,-1,3,-1,5,-1,-1],"loss_changes":[2.0566946E-1,0E0,1.951237E-1,0E0,2.6205623E-1,0E0,0E0],"parents":[2147483647,0,0,2,2,4,4],"right_children":[2,-1,4,-1,6,-1,-1],"split_conditions":[4.576923E-1,2.0896198E-2,4.9746856E-1,-3.0441001E-2,5.041453E-1,-1.9765044E-2,3.1611517E-2],"split_indices":[2,0,4,0,2,0,0],"split_type":[0,0,0,0,0,0,0],"sum_hessian":[5.7596965E0,1.9997479E0,3.7599485E0,1.7221053E0,2.0378432E0,1.0331391E0,1.0047041E0],"tree_param":{"num_deleted":"0","num_feature":"5","num_nodes":"7","size_leaf_vector":"1"}},{"base_weights":[4.3617976E-3,1.07993364E-1,-2.4179159E-2,-1.7408999E-2,2.3149148E-1,-5.0141104E-3,3.45152E-1,4.7516517E-2,4.547387E-3],"categories":[],"categories_nodes":[],"categories_segments":[],"categories_sizes":[],"default_left":[0,0,0,0,0,0,0,0,0],"id":68,"left_children":[1,3,-1,-1,5,-1,7,-1,-1],"loss_changes":[1.978298E-1,2.2941047E-1,0E0,0E0,1.519026E-1,0E0,1.0005486E-1,0E0,0E0],"parents":[2147483647,0,0,1,1,4,4,6,6],"right_children":[2,4,-1,-1,6,-1,8,-1,-1],"split_conditions":[5.525E-1,1.9937988E-1,-2.4179159E-2,-1.7408999E-2,4.7034484E-1,-5.0141104E-3,5.041453E-1,4.7516517E-2,4.547387E-3],"split_indices":[1,0,0,0,2,0,2,0,0],"split_type":[0,0,0,0,0,0,0,0,0],"sum_hessian":[5.731591E0,4.4284654E0,1.3031257E0,1.2237129E0,3.2047527E0,1.0821674E0,2.1225853E0,1.0719448E0,1.0506405E0],"tree_param":{"num_deleted":"0","num_feature":"5","num_nodes":"9","size_leaf_vector":"1"}},{"base_weights":[4.8167733E-3,2.0543551E-2,-1.239248E-1,-2.958789E-2,7.1417675E-3],"categories":[],"categories_nodes":[],"categories_segments":[],"categories_sizes":[],"default_left":[0,0,0,0,0],"id":69,"left_children":[1,-1,3,-1,-1],"loss_changes":[1.9848081E-1,0E0,1.7914568E-1,0E0,0E0],"parents":[2147483647,0,0,2,2],"right_children":[2,-1,4,-1,-1],"split_conditions":[4.576923E-1,2.0543551E-2,4.9746856E-1,-2.958789E-2,7.1417675E-3],"split_indices":[2,0,4,0,0],"split_type":[0,0,0,0,0],"sum_hessian":[5.6990256E0,1.9947989E0,3.7042267E0,1.6963305E0,2.0078962E0],"tree_param":{"num_deleted":"0","num_feature":"5","num_nodes":"5","size_leaf_vector":"1"}},{"base_weights":[4.0474986E-3,-9.246624E-2,2.696741E-2,5.025888E-2,-3.428351E-2,-2.7382273E-2,2.3563087E-1,3.2494668E-2,3.1248427E-3],"categories":[],"categories_nodes":[],"categories_segments":[],"categories_sizes":[],"default_left":[0,0,0,0,0,0,0,0,0],"id":70,"left_children":[1,3,-1,5,-1,-1,7,-1,-1],"loss_changes":[1.9624338E-1,2.1898282E-1,0E0,3.3294886E-1,0E0,0E0,5.1543504E-2,0E0,0E0],"parents":[2147483647,0,0,1,1,3,3,6,6],"right_children":[2,4,-1,6,-1,-1,8,-1,-1],"split_conditions":[2.4994443E-1,5.466667E-1,2.696741E-2,4.834188E-1,-3.428351E-2,-2.7382273E-2,4.8268908E-1,3.2494668E-2,3.1248427E-3],"split_indices":[3,1,0,1,0,0,2,0,0],"split_type":[0,0,0,0,0,0,0,0,0],"sum_hessian":[5.682146E0,4.64596E0,1.0361862E0,3.468162E0,1.1777979E0,1.0883217E0,2.3798404E0,1.2456096E0,1.1342307E0],"tree_param":{"num_deleted":"0","num_feature":"5","num_nodes":"9","size_leaf_vector":"1"}},{"base_weights":[3.7996555E-3,-1.679966E-1,1.4309508E-1,1.8338265E-2,-4.5947738E-2,-7.5337286E-3,3.402188E-2],"categories":[],"categories_nodes":[],"categories_segments":[],"categories_sizes":[],"default_left":[0,0,0,0,0,0,0],"id":71,"left_children":[1,3,5,-1,-1,-1,-1],"loss_changes":[1.8310852E-1,4.3620944E-1,2.0694146E-1,0E0,0E0,0E0,0E0],"parents":[2147483647,0,0,1,1,2,2],"right_children":[2,4,6,-1,-1,-1,-1],"split_conditions":[2.1213204E-1,5.058824E-1,5.252336E-1,1.8338265E-2,-4.5947738E-2,-7.5337286E-3,3.402188E-2],"split_indices":[3,1,1,0,0,0,0],"split_type":[0,0,0,0,0,0,0],"sum_hessian":[5.647144E0,2.4363241E0,3.2108197E0,1.2728118E0,1.1635123E0,1.8161571E0,1.3946629E0],"tree_param":{"num_deleted":"0","num_feature":"5","num_nodes":"7","size_leaf_vector":"1"}},{"base_weights":[3.2340796E-3,2.0287564E-2,-1.24151245E-1,-2.7307028E-2,8.580253E-3],"categories":[],"categories_nodes":[],"categories_segments":[],"categories_sizes":[],"default_left":[0,0,0,0,0],"id":72,"left_children":[1,-1,3,-1,-1],"loss_changes":[1.9338185E-1,0E0,1.6906244E-1,0E0,0E0],"parents":[2147483647,0,0,2,2],"right_children":[2,-1,4,-1,-1],"split_conditions":[4.576923E-1,2.0287564E-2,5E-1,-2.7307028E-2,8.580253E-3],"split_indices":[2,0,2,0,0],"split_type":[0,0,0,0,0],"sum_hessian":[5.613657E0,1.9558246E0,3.6578324E0,1.964092E0,1.6937402E0],"tree_param":{"num_deleted":"0","num_feature":"5","num_nodes":"5","size_leaf_vector":"1"}},{"base_weights":[3.1419198E-3,1.04751304E-1,-2.3711888E-2,-1.6159516E-2,2.1978673E-1,-5.896477E-3,3.3526295E-1,4.5962434E-2,4.5326557E-3],"categories":[],"categories_nodes":[],"categories_segments":[],"categories_sizes":[],"default_left":[0,0,0,0,0,0,0,0,0],"id":73,"left_children":[1,3,-1,-1,5,-1,7,-1,-1],"loss_changes":[1.8584204E-1,1.9877766E-1,0E0,0E0,1.531922E-1,0E0,9.02369E-2,0E0,0E0],"parents":[2147483647,0,0,1,1,4,4,6,6],"right_children":[2,4,-1,-1,6,-1,8,-1,-1],"split_conditions":[5.525E-1,1.9937988E-1,-2.3711888E-2,-1.6159516E-2,4.7034484E-1,-5.896477E-3,5.041453E-1,4.5962434E-2,4.5326557E-3],"split_indices":[1,0,0,0,2,0,2,0,0],"split_type":[0,0,0,0,0,0,0,0,0],"sum_hessian":[5.5950584E0,4.328493E0,1.2665654E0,1.1835129E0,3.1449802E0,1.0645672E0,2.080413E0,1.0463477E0,1.0340652E0],"tree_param":{"num_deleted":"0","num_feature":"5","num_nodes":"9","size_leaf_vector":"1"}},{"base_weights":[3.6148787E-3,-1.0642191E-1,2.301029E-2,1.7926045E-2,-3.4865126E-1,-1.0580285E-2,-4.2737477E-2],"categories":[],"categories_nodes":[],"categories_segments":[],"categories_sizes":[],"default_left":[0,0,0,0,0,0,0],"id":74,"left_children":[1,3,-1,-1,5,-1,-1],"loss_changes":[1.880783E-1,4.155284E-1,0E0,0E0,1.40533745E-2,0E0,0E0],"parents":[2147483647,0,0,1,1,4,4],"right_children":[2,4,-1,-1,6,-1,-1],"split_conditions":[5.301659E-1,5.0166667E-1,2.301029E-2,1.7926045E-2,4.6064517E-1,-1.0580285E-2,-4.2737477E-2],"split_indices":[4,1,0,0,2,0,0],"split_type":[0,0,0,0,0,0,0],"sum_hessian":[5.564089E0,4.1015267E0,1.4625618E0,2.001242E0,2.1002848E0,1.0879933E0,1.0122916E0],"tree_param":{"num_deleted":"0","num_feature":"5","num_nodes":"7","size_leaf_vector":"1"}},{"base_weights":[1.3228895E-3,1.9490525E-2,-1.23460755E-1,-2.89857E-2,7.019055E-3],"categories":[],"categories_nodes":[],"categories_segments":[],"categories_sizes":[],"default_left":[0,0,0,0,0],"id":75,"left_children":[1,-1,3,-1,-1],"loss_changes":[1.8194199E-1,0E0,1.681293E-1,0E0,0E0],"parents":[2147483647,0,0,2,2],"right_children":[2,-1,4,-1,-1],"split_conditions":[4.576923E-1,1.9490525E-2,4.9746856E-1,-2.89857E-2,7.019055E-3],"split_indices":[2,0,4,0,0],"split_type":[0,0,0,0,0],"sum_hessian":[5.5358257E0,1.9495137E0,3.586312E0,1.6616924E0,1.9246197E0],"tree_param":{"num_deleted":"0","num_feature":"5","num_nodes":"5","size_leaf_vector":"1"}},{"base_weights":[7.999396E-4,-1.6976663E-1,1.4018624E-1,1.732868E-2,-4.4879537E-2,-7.4830907E-3,3.3300105E-2],"categories":[],"categories_nodes":[],"categories_segments":[],"categories_sizes":[],"default_left":[0,0,0,0,0,0,0],"id":76,"left_children":[1,3,5,-1,-1,-1,-1],"loss_changes":[1.7879759E-1,4.0170324E-1,1.963656E-1,0E0,0E0,0E0,0E0],"parents":[2147483647,0,0,1,1,2,2],"right_children":[2,4,6,-1,-1,-1,-1],"split_conditions":[2.1213204E-1,5.058824E-1,5.252336E-1,1.732868E-2,-4.4879537E-2,-7.4830907E-3,3.3300105E-2],"split_indices":[3,1,1,0,0,0,0],"split_type":[0,0,0,0,0,0,0],"sum_hessian":[5.5194936E0,2.384109E0,3.1353848E0,1.239349E0,1.14476E0,1.7716428E0,1.363742E0],"tree_param":{"num_deleted":"0","num_feature":"5","num_nodes":"7","size_leaf_vector":"1"}},{"base_weights":[4.248999E-4,1.012406E-1,-2.3542438E-2,-1.5734566E-2,2.1313702E-1,-5.475702E-3,3.2390505E-1,4.467669E-2,3.972665E-3],"categories":[],"categories_nodes":[],"categories_segments":[],"categories_sizes":[],"default_left":[0,0,0,0,0,0,0,0,0],"id":77,"left_children":[1,3,-1,-1,5,-1,7,-1,-1],"loss_changes":[1.7808592E-1,1.8526956E-1,0E0,0E0,1.3894999E-1,0E0,8.8201076E-2,0E0,0E0],"parents":[2147483647,0,0,1,1,4,4,6,6],"right_children":[2,4,-1,-1,6,-1,8,-1,-1],"split_conditions":[5.525E-1,1.9937988E-1,-2.3542438E-2,-1.5734566E-2,4.7034484E-1,-5.475702E-3,5.041453E-1,4.467669E-2,3.972665E-3],"split_indices":[1,0,0,0,2,0,2,0,0],"split_type":[0,0,0,0,0,0,0,0,0],"sum_hessian":[5.4873376E0,4.243962E0,1.2433758E0,1.1591227E0,3.084839E0,1.05031E0,2.034529E0,1.0209818E0,1.0135473E0],"tree_param":{"num_deleted":"0","num_feature":"5","num_nodes":"9","size_leaf_vector":"1"}},{"base_weights":[1.0381348E-3,1.9947473E-2,-1.2703627E-1,-2.8863067E-2,6.406852E-3],"categories":[],"categories_nodes":[],"categories_segments":[],"categories_sizes":[],"default_left":[0,0,0,0,0],"id":78,"left_children":[1,-1,3,-1,-1],"loss_changes":[1.8945731E-1,0E0,1.5855515E-1,0E0,0E0],"parents":[2147483647,0,0,2,2],"right_children":[2,-1,4,-1,-1],"split_conditions":[4.576923E-1,1.9947473E-2,4.9746856E-1,-2.8863067E-2,6.406852E-3],"split_indices":[2,0,4,0,0],"split_type":[0,0,0,0,0],"sum_hessian":[5.4575663E0,1.9220616E0,3.5355046E0,1.6391475E0,1.8963569E0],"tree_param":{"num_deleted":"0","num_feature":"5","num_nodes":"5","size_leaf_vector":"1"}},{"base_weights":[5.3388125E-4,1.8673483E-2,-1.1959839E-1,-2.7179286E-2,5.9888936E-3],"categories":[],"categories_nodes":[],"categories_segments":[],"categories_sizes":[],"default_left":[0,0,0,0,0],"id":79,"left_children":[1,-1,3,-1,-1],"loss_changes":[1.6641404E-1,0E0,1.3988034E-1,0E0,0E0],"parents":[2147483647,0,0,2,2],"right_children":[2,-1,4,-1,-1],"split_conditions":[4.576923E-1,1.8673483E-2,4.9746856E-1,-2.7179286E-2,5.9888936E-3],"split_indices":[2,0,4,0,0],"split_type":[0,0,0,0,0],"sum_hessian":[5.441169E0,1.9164014E0,3.5247676E0,1.6291083E0,1.8956592E0],"tree_param":{"num_deleted":"0","num_feature":"5","num_nodes":"5","size_leaf_vector":"1"}},{"base_weights":[7.7870114E-5,-1.3076982E-1,1.7560136E-1,1.5347026E-2,-3.1563412E-2,-1.3668737E-2,4.1399587E-2],"categories":[],"categories_nodes":[],"categories_segments":[],"categories_sizes":[],"default_left":[0,0,0,0,0,0,0],"id":80,"left_children":[1,3,5,-1,-1,-1,-1],"loss_changes":[1.7054354E-1,2.7200067E-1,2.926786E-1,0E0,0E0,0E0,0E0],"parents":[2147483647,0,0,1,1,2,2],"right_children":[2,4,6,-1,-1,-1,-1],"split_conditions":[2.2661553E-1,5.0166667E-1,5.0949454E-1,1.5347026E-2,-3.1563412E-2,-1.3668737E-2,4.1399587E-2],"split_indices":[3,1,4,0,0,0,0],"split_type":[0,0,0,0,0,0,0],"sum_hessian":[5.425793E0,3.2545745E0,2.1712186E0,1.3494836E0,1.905091E0,1.124628E0,1.0465908E0],"tree_param":{"num_deleted":"0","num_feature":"5","num_nodes":"7","size_leaf_vector":"1"}},{"base_weights":[1.8924203E-3,1.0358757E-1,-2.3520691E-2,2.4402909E-1,-1.1459543E-2,5.5099692E-2,-1.622374E-2],"categories":[],"categories_nodes":[],"categories_segments":[],"categories_sizes":[],"default_left":[0,0,0,0,0,0,0],"id":81,"left_children":[1,3,-1,5,-1,-1,-1],"loss_changes":[1.7850232E-1,1.8632239E-1,0E0,5.213523E-1,0E0,0E0,0E0],"parents":[2147483647,0,0,1,1,3,3],"right_children":[2,4,-1,6,-1,-1,-1],"split_conditions":[5.525E-1,4.8268908E-1,-2.3520691E-2,5.019608E-1,-1.1459543E-2,5.5099692E-2,-1.622374E-2],"split_indices":[1,2,0,4,0,0,0],"split_type":[0,0,0,0,0,0,0],"sum_hessian":[5.3926153E0,4.1680055E0,1.2246097E0,2.463696E0,1.7043093E0,1.2004285E0,1.2632676E0],"tree_param":{"num_deleted":"0","num_feature":"5","num_nodes":"7","size_leaf_vector":"1"}},{"base_weights":[2.4345808E-3,1.8751658E-2,-1.1797868E-1,-2.526789E-2,7.602756E-3],"categories":[],"categories_nodes":[],"categories_segments":[],"categories_sizes":[],"default_left":[0,0,0,0,0],"id":82,"left_children":[1,-1,3,-1,-1],"loss_changes":[1.6373174E-1,0E0,1.3585049E-1,0E0,0E0],"parents":[2147483647,0,0,2,2],"right_children":[2,-1,4,-1,-1],"split_conditions":[4.576923E-1,1.8751658E-2,5E-1,-2.526789E-2,7.602756E-3],"split_indices":[2,0,2,0,0],"split_type":[0,0,0,0,0],"sum_hessian":[5.354065E0,1.8906907E0,3.4633741E0,1.8656266E0,1.5977474E0],"tree_param":{"num_deleted":"0","num_feature":"5","num_nodes":"5","size_leaf_vector":"1"}},{"base_weights":[2.3566426E-3,1.0004216E-1,-2.2460079E-2,-1.5314299E-2,2.0909946E-1,-5.9530367E-3,3.2179885E-2],"categories":[],"categories_nodes":[],"categories_segments":[],"categories_sizes":[],"default_left":[0,0,0,0,0,0,0],"id":83,"left_children":[1,3,-1,-1,5,-1,-1],"loss_changes":[1.6296853E-1,1.7345414E-1,0E0,0E0,1.403408E-1,0E0,0E0],"parents":[2147483647,0,0,1,1,4,4],"right_children":[2,4,-1,-1,6,-1,-1],"split_conditions":[5.525E-1,1.9937988E-1,-2.2460079E-2,-1.5314299E-2,4.7034484E-1,-5.9530367E-3,3.2179885E-2],"split_indices":[1,0,0,0,2,0,0],"split_type":[0,0,0,0,0,0,0],"sum_hessian":[5.3372183E0,4.12218E0,1.2150384E0,1.119328E0,3.0028517E0,1.0269041E0,1.9759476E0],"tree_param":{"num_deleted":"0","num_feature":"5","num_nodes":"7","size_leaf_vector":"1"}},{"base_weights":[3.2744202E-4,1.8478338E-2,-1.2008605E-1,-2.6293669E-2,5.3161858E-3],"categories":[],"categories_nodes":[],"categories_segments":[],"categories_sizes":[],"default_left":[0,0,0,0,0],"id":84,"left_children":[1,-1,3,-1,-1],"loss_changes":[1.6236262E-1,0E0,1.2347691E-1,0E0,0E0],"parents":[2147483647,0,0,2,2],"right_children":[2,-1,4,-1,-1],"split_conditions":[4.576923E-1,1.8478338E-2,4.9746856E-1,-2.6293669E-2,5.3161858E-3],"split_indices":[2,0,4,0,0],"split_type":[0,0,0,0,0],"sum_hessian":[5.310963E0,1.8865182E0,3.424445E0,1.5931395E0,1.8313053E0],"tree_param":{"num_deleted":"0","num_feature":"5","num_nodes":"5","size_leaf_vector":"1"}},{"base_weights":[-1.1272164E-4,-1.2920864E-1,1.7324653E-1,1.4529585E-2,-3.0579088E-2,-1.2854067E-2,4.0116873E-2],"categories":[],"categories_nodes":[],"categories_segments":[],"categories_sizes":[],"default_left":[0,0,0,0,0,0,0],"id":85,"left_children":[1,3,5,-1,-1,-1,-1],"loss_changes":[1.6328968E-1,2.4711895E-1,2.657948E-1,0E0,0E0,0E0,0E0],"parents":[2147483647,0,0,1,1,2,2],"right_children":[2,4,6,-1,-1,-1,-1],"split_conditions":[2.2661553E-1,5.0166667E-1,5.0949454E-1,1.4529585E-2,-3.0579088E-2,-1.2854067E-2,4.0116873E-2],"split_indices":[3,1,4,0,0,0,0],"split_type":[0,0,0,0,0,0,0],"sum_hessian":[5.296019E0,3.1815112E0,2.114508E0,1.3147911E0,1.8667202E0,1.097441E0,1.0170668E0],"tree_param":{"num_deleted":"0","num_feature":"5","num_nodes":"7","size_leaf_vector":"1"}},{"base_weights":[1.7076401E-3,1.2753984E-1,-1.6917257E-2,3.9003577E-2,-1.3641161E-2],"categories":[],"categories_nodes":[],"categories_segments":[],"categories_sizes":[],"default_left":[0,0,0,0,0],"id":86,"left_children":[1,3,-1,-1,-1],"loss_changes":[1.5628207E-1,3.4268948E-1,0E0,0E0,0E0],"parents":[2147483647,0,0,1,1],"right_children":[2,4,-1,-1,-1],"split_conditions":[4.8268908E-1,5.019608E-1,-1.6917257E-2,3.9003577E-2,-1.3641161E-2],"split_indices":[2,4,0,0,0],"split_type":[0,0,0,0,0],"sum_hessian":[5.2647367E0,3.1780932E0,2.0866435E0,1.3539398E0,1.8241535E0],"tree_param":{"num_deleted":"0","num_feature":"5","num_nodes":"5","size_leaf_vector":"1"}},{"base_weights":[2.9400217E-3,1.8477976E-2,-1.16840236E-1,-2.4042293E-2,6.5076053E-3],"categories":[],"categories_nodes":[],"categories_segments":[],"categories_sizes":[],"default_left":[0,0,0,0,0],"id":87,"left_children":[1,-1,3,-1,-1],"loss_changes":[1.5755458E-1,0E0,1.1402645E-1,0E0,0E0],"parents":[2147483647,0,0,2,2],"right_children":[2,-1,4,-1,-1],"split_conditions":[4.576923E-1,1.8477976E-2,5E-1,-2.4042293E-2,6.5076053E-3],"split_indices":[2,0,2,0,0],"split_type":[0,0,0,0,0],"sum_hessian":[5.242415E0,1.8663827E0,3.3760324E0,1.8188232E0,1.5572093E0],"tree_param":{"num_deleted":"0","num_feature":"5","num_nodes":"5","size_leaf_vector":"1"}},{"base_weights":[2.794164E-3,9.9018864E-2,-2.1917323E-2,2.3610614E-1,-1.1396871E-2,5.261724E-2,-1.4810904E-2],"categories":[],"categories_nodes":[],"categories_segments":[],"categories_sizes":[],"default_left":[0,0,0,0,0,0,0],"id":88,"left_children":[1,3,-1,5,-1,-1,-1],"loss_changes":[1.5469448E-1,1.738445E-1,0E0,4.5543867E-1,0E0,0E0,0E0],"parents":[2147483647,0,0,1,1,3,3],"right_children":[2,4,-1,6,-1,-1,-1],"split_conditions":[5.525E-1,4.8268908E-1,-2.1917323E-2,5.019608E-1,-1.1396871E-2,5.261724E-2,-1.4810904E-2],"split_indices":[1,2,0,4,0,0,0],"split_type":[0,0,0,0,0,0,0],"sum_hessian":[5.2265916E0,4.0324116E0,1.1941803E0,2.3873036E0,1.6451079E0,1.1497885E0,1.2375151E0],"tree_param":{"num_deleted":"0","num_feature":"5","num_nodes":"7","size_leaf_vector":"1"}},{"base_weights":[3.355691E-3,-1.0134616E-1,2.1282373E-2,1.4471982E-1,-3.4832973E-2,3.1206597E-2,-8.958368E-3],"categories":[],"categories_nodes":[],"categories_segments":[],"categories_sizes":[],"default_left":[0,0,0,0,0,0,0],"id":89,"left_children":[1,3,-1,5,-1,-1,-1],"loss_changes":[1.573378E-1,3.4242222E-1,0E0,1.5003112E-1,0E0,0E0,0E0],"parents":[2147483647,0,0,1,1,3,3],"right_children":[2,4,-1,6,-1,-1,-1],"split_conditions":[5.301659E-1,5.058824E-1,2.1282373E-2,4.8566666E-1,-3.4832973E-2,3.1206597E-2,-8.958368E-3],"split_indices":[4,1,0,2,0,0,0],"split_type":[0,0,0,0,0,0,0],"sum_hessian":[5.190537E0,3.8048635E0,1.3856738E0,2.113383E0,1.6914804E0,1.0392404E0,1.0741426E0],"tree_param":{"num_deleted":"0","num_feature":"5","num_nodes":"7","size_leaf_vector":"1"}},{"base_weights":[4.4363523E-3,-1.5630116E-1,1.3415378E-1,1.623794E-2,-4.1021224E-2,-7.7772187E-3,3.213101E-2],"categories":[],"categories_nodes":[],"categories_segments":[],"categories_sizes":[],"default_left":[0,0,0,0,0,0,0],"id":90,"left_children":[1,3,5,-1,-1,-1,-1],"loss_changes":[1.4947464E-1,3.267065E-1,1.8161345E-1,0E0,0E0,0E0,0E0],"parents":[2147483647,0,0,1,1,2,2],"right_children":[2,4,6,-1,-1,-1,-1],"split_conditions":[2.1213204E-1,5.058824E-1,5.252336E-1,1.623794E-2,-4.1021224E-2,-7.7772187E-3,3.213101E-2],"split_indices":[3,1,1,0,0,0,0],"split_type":[0,0,0,0,0,0,0],"sum_hessian":[5.1632333E0,2.21438E0,2.9488533E0,1.1418037E0,1.0725763E0,1.6570032E0,1.2918502E0],"tree_param":{"num_deleted":"0","num_feature":"5","num_nodes":"7","size_leaf_vector":"1"}},{"base_weights":[3.9196108E-3,1.82327E-2,-1.1357963E-1,-2.6245652E-2,6.5032425E-3],"categories":[],"categories_nodes":[],"categories_segments":[],"categories_sizes":[],"default_left":[0,0,0,0,0],"id":91,"left_children":[1,-1,3,-1,-1],"loss_changes":[1.4929152E-1,0E0,1.3179298E-1,0E0,0E0],"parents":[2147483647,0,0,2,2],"right_children":[2,-1,4,-1,-1],"split_conditions":[4.576923E-1,1.82327E-2,4.9746856E-1,-2.6245652E-2,6.5032425E-3],"split_indices":[2,0,4,0,0],"split_type":[0,0,0,0,0],"sum_hessian":[5.1338797E0,1.8194903E0,3.3143895E0,1.5516416E0,1.7627478E0],"tree_param":{"num_deleted":"0","num_feature":"5","num_nodes":"5","size_leaf_vector":"1"}},{"base_weights":[3.2780853E-3,9.940961E-2,-2.1728342E-2,-1.4992483E-2,2.0670925E-1,3.1980842E-2,-3.5585852E-3],"categories":[],"categories_nodes":[],"categories_segments":[],"categories_sizes":[],"default_left":[0,0,0,0,0,0,0],"id":92,"left_children":[1,3,-1,-1,5,-1,-1],"loss_changes":[1.513383E-1,1.6335678E-1,0E0,0E0,1.1768998E-1,0E0,0E0],"parents":[2147483647,0,0,1,1,4,4],"right_children":[2,4,-1,-1,6,-1,-1],"split_conditions":[5.525E-1,1.9937988E-1,-2.1728342E-2,-1.4992483E-2,2.2129366E-1,3.1980842E-2,-3.5585852E-3],"split_indices":[1,0,0,0,0,0,0],"split_type":[0,0,0,0,0,0,0],"sum_hessian":[5.118887E0,3.9476125E0,1.1712745E0,1.068188E0,2.8794246E0,1.7449836E0,1.134441E0],"tree_param":{"num_deleted":"0","num_feature":"5","num_nodes":"7","size_leaf_vector":"1"}},{"base_weights":[1.6218632E-3,-1.2475936E-1,1.6852533E-2,1.0473332E-2,-3.1553887E-2],"categories":[],"categories_nodes":[],"categories_segments":[],"categories_sizes":[],"default_left":[0,0,0,0,0],"id":93,"left_children":[1,3,-1,-1,-1],"loss_changes":[1.4962262E-1,2.1010658E-1,0E0,0E0,0E0],"parents":[2147483647,0,0,1,1],"right_children":[2,4,-1,-1,-1],"split_conditions":[2.2661553E-1,2.073223E-1,1.6852533E-2,1.0473332E-2,-3.1553887E-2],"split_indices":[3,3,0,0,0],"split_type":[0,0,0,0,0],"sum_hessian":[5.0965567E0,3.044063E0,2.0524938E0,1.5865694E0,1.4574937E0],"tree_param":{"num_deleted":"0","num_feature":"5","num_nodes":"5","size_leaf_vector":"1"}},{"base_weights":[7.4249564E-4,-1.005484E-1,2.0433817E-2,1.5687725E-2,-3.147578E-2],"categories":[],"categories_nodes":[],"categories_segments":[],"categories_sizes":[],"default_left":[0,0,0,0,0],"id":94,"left_children":[1,3,-1,-1,-1],"loss_changes":[1.4585945E-1,3.1009433E-1,0E0,0E0,0E0],"parents":[2147483647,0,0,1,1],"right_children":[2,4,-1,-1,-1],"split_conditions":[5.301659E-1,5.0166667E-1,2.0433817E-2,1.5687725E-2,-3.147578E-2],"split_indices":[4,1,0,0,0],"split_type":[0,0,0,0,0],"sum_hessian":[5.0765786E0,3.7279985E0,1.34858E0,1.81476E0,1.9132385E0],"tree_param":{"num_deleted":"0","num_feature":"5","num_nodes":"5","size_leaf_vector":"1"}},{"base_weights":[1.4160858E-3,1.776146E-2,-1.1490182E-1,-2.5664417E-2,5.929925E-3],"categories":[],"categories_nodes":[],"categories_segments":[],"categories_sizes":[],"default_left":[0,0,0,0,0],"id":95,"left_children":[1,-1,3,-1,-1],"loss_changes":[1.4453344E-1,0E0,1.2028839E-1,0E0,0E0],"parents":[2147483647,0,0,2,2],"right_children":[2,-1,4,-1,-1],"split_conditions":[4.576923E-1,1.776146E-2,4.9746856E-1,-2.5664417E-2,5.929925E-3],"split_indices":[2,0,4,0,0],"split_type":[0,0,0,0,0],"sum_hessian":[5.0563526E0,1.8010874E0,3.2552655E0,1.5339065E0,1.721359E0],"tree_param":{"num_deleted":"0","num_feature":"5","num_nodes":"5","size_leaf_vector":"1"}},{"base_weights":[9.397727E-4,9.592006E-2,-2.1458108E-2,-1.5034002E-2,2.0235924E-1,3.1287547E-2,-3.4649824E-3],"categories":[],"categories_nodes":[],"categories_segments":[],"categories_sizes":[],"default_left":[0,0,0,0,0,0,0],"id":96,"left_children":[1,3,-1,-1,5,-1,-1],"loss_changes":[1.4426328E-1,1.5846314E-1,0E0,0E0,1.11343294E-1,0E0,0E0],"parents":[2147483647,0,0,1,1,4,4],"right_children":[2,4,-1,-1,6,-1,-1],"split_conditions":[5.525E-1,1.9937988E-1,-2.1458108E-2,-1.5034002E-2,2.2129366E-1,3.1287547E-2,-3.4649824E-3],"split_indices":[1,0,0,0,0,0,0],"split_type":[0,0,0,0,0,0,0],"sum_hessian":[5.041976E0,3.8848543E0,1.1571215E0,1.0479178E0,2.8369365E0,1.7164598E0,1.1204766E0],"tree_param":{"num_deleted":"0","num_feature":"5","num_nodes":"7","size_leaf_vector":"1"}},{"base_weights":[-5.7071936E-4,-1.255559E-1,1.6506191E-2,1.2401987E-2,-2.8263388E-2],"categories":[],"categories_nodes":[],"categories_segments":[],"categories_sizes":[],"default_left":[0,0,0,0,0],"id":97,"left_children":[1,3,-1,-1,-1],"loss_changes":[1.453514E-1,1.9182639E-1,0E0,0E0,0E0],"parents":[2147483647,0,0,1,1],"right_children":[2,4,-1,-1,-1],"split_conditions":[2.2661553E-1,5.0166667E-1,1.6506191E-2,1.2401987E-2,-2.8263388E-2],"split_indices":[3,1,0,0,0],"split_type":[0,0,0,0,0],"sum_hessian":[5.020151E0,2.9990504E0,2.0211005E0,1.2397349E0,1.7593156E0],"tree_param":{"num_deleted":"0","num_feature":"5","num_nodes":"5","size_leaf_vector":"1"}},{"base_weights":[-4.2529925E-4,1.7760506E-2,-1.17909774E-1,-2.5206635E-2,5.104644E-3],"categories":[],"categories_nodes":[],"categories_segments":[],"categories_sizes":[],"default_left":[0,0,0,0,0],"id":98,"left_children":[1,-1,3,-1,-1],"loss_changes":[1.4649309E-1,0E0,1.0845863E-1,0E0,0E0],"parents":[2147483647,0,0,2,2],"right_children":[2,-1,4,-1,-1],"split_conditions":[4.576923E-1,1.7760506E-2,4.9746856E-1,-2.5206635E-2,5.104644E-3],"split_indices":[2,0,4,0,0],"split_type":[0,0,0,0,0],"sum_hessian":[5.002721E0,1.7854314E0,3.2172894E0,1.5191406E0,1.6981487E0],"tree_param":{"num_deleted":"0","num_feature":"5","num_nodes":"5","size_leaf_vector":"1"}},{"base_weights":[-7.852628E-4,-1.5529713E-1,1.2425988E-1,1.52332485E-2,-3.933276E-2,-8.1047015E-3,3.0692978E-2],"categories":[],"categories_nodes":[],"categories_segments":[],"categories_sizes":[],"default_left":[0,0,0,0,0,0,0],"id":99,"left_children":[1,3,5,-1,-1,-1,-1],"loss_changes":[1.3500331E-1,2.8861272E-1,1.6984296E-1,0E0,0E0,0E0,0E0],"parents":[2147483647,0,0,1,1,2,2],"right_children":[2,4,6,-1,-1,-1,-1],"split_conditions":[2.1213204E-1,5.058824E-1,5.252336E-1,1.52332485E-2,-3.933276E-2,-8.1047015E-3,3.0692978E-2],"split_indices":[3,1,1,0,0,0,0],"split_type":[0,0,0,0,0,0,0],"sum_hessian":[4.988632E0,2.1231885E0,2.8654435E0,1.0832412E0,1.0399474E0,1.611058E0,1.2543856E0],"tree_param":{"num_deleted":"0","num_feature":"5","num_nodes":"7","size_leaf_vector":"1"}},{"base_weights":[-9.839218E-4,1.7312566E-2,-1.151121E-1,-2.4319002E-2,4.730575E-3],"categories":[],"categories_nodes":[],"categories_segments":[],"categories_sizes":[],"default_left":[0,0,0,0,0],"id":100,"left_children":[1,-1,3,-1,-1],"loss_changes":[1.3837986E-1,0E0,9.890243E-2,0E0,0E0],"parents":[2147483647,0,0,2,2],"right_children":[2,-1,4,-1,-1],"split_conditions":[4.576923E-1,1.7312566E-2,4.9746856E-1,-2.4319002E-2,4.730575E-3],"split_indices":[2,0,4,0,0],"split_type":[0,0,0,0,0],"sum_hessian":[4.9610553E0,1.759654E0,3.2014012E0,1.5118723E0,1.6895288E0],"tree_param":{"num_deleted":"0","num_feature":"5","num_nodes":"5","size_leaf_vector":"1"}},{"base_weights":[-1.2799592E-3,9.391567E-2,-2.1553101E-2,2.2182938E-1,-1.0758101E-2,4.9852904E-2,-1.4608579E-2],"categories":[],"categories_nodes":[],"categories_segments":[],"categories_sizes":[],"default_left":[0,0,0,0,0,0,0],"id":101,"left_children":[1,3,-1,5,-1,-1,-1],"loss_changes":[1.4154463E-1,1.4795017E-1,0E0,4.058693E-1,0E0,0E0,0E0],"parents":[2147483647,0,0,1,1,3,3],"right_children":[2,4,-1,6,-1,-1,-1],"split_conditions":[5.525E-1,4.8268908E-1,-2.1553101E-2,5.019608E-1,-1.0758101E-2,4.9852904E-2,-1.4608579E-2],"split_indices":[1,2,0,4,0,0,0],"split_type":[0,0,0,0,0,0,0],"sum_hessian":[4.9474554E0,3.8143337E0,1.1331218E0,2.271461E0,1.5428725E0,1.0938176E0,1.1776435E0],"tree_param":{"num_deleted":"0","num_feature":"5","num_nodes":"7","size_leaf_vector":"1"}},{"base_weights":[-5.7008513E-4,-9.835671E-2,1.9387005E-2,1.3116761E-2,-3.2418367E-2],"categories":[],"categories_nodes":[],"categories_segments":[],"categories_sizes":[],"default_left":[0,0,0,0,0],"id":102,"left_children":[1,3,-1,-1,-1],"loss_changes":[1.3150842E-1,2.808605E-1,0E0,0E0,0E0],"parents":[2147483647,0,0,1,1],"right_children":[2,4,-1,-1,-1],"split_conditions":[5.301659E-1,5.058824E-1,1.9387005E-2,1.3116761E-2,-3.2418367E-2],"split_indices":[4,1,0,0,0],"split_type":[0,0,0,0,0],"sum_hessian":[4.913649E0,3.5982125E0,1.3154366E0,1.9923799E0,1.6058326E0],"tree_param":{"num_deleted":"0","num_feature":"5","num_nodes":"5","size_leaf_vector":"1"}},{"base_weights":[-5.256107E-4,9.087885E-2,-2.059862E-2,-1.4464549E-2,1.9306195E-1,2.9481215E-2,-3.908204E-3],"categories":[],"categories_nodes":[],"categories_segments":[],"categories_sizes":[],"default_left":[0,0,0,0,0,0,0],"id":103,"left_children":[1,3,-1,-1,5,-1,-1],"loss_changes":[1.2942137E-1,1.4280903E-1,0E0,0E0,1.0027665E-1,0E0,0E0],"parents":[2147483647,0,0,1,1,4,4],"right_children":[2,4,-1,-1,6,-1,-1],"split_conditions":[5.525E-1,1.9937988E-1,-2.059862E-2,-1.4464549E-2,5.147222E-1,2.9481215E-2,-3.908204E-3],"split_indices":[1,0,0,0,4,0,0],"split_type":[0,0,0,0,0,0,0],"sum_hessian":[4.8946486E0,3.7735636E0,1.121085E0,1.0160631E0,2.7575004E0,1.7294971E0,1.0280035E0],"tree_param":{"num_deleted":"0","num_feature":"5","num_nodes":"7","size_leaf_vector":"1"}},{"base_weights":[-2.0723408E-3,1.7192073E-2,-1.16578884E-1,-2.4832912E-2,5.0680535E-3],"categories":[],"categories_nodes":[],"categories_segments":[],"categories_sizes":[],"default_left":[0,0,0,0,0],"id":104,"left_children":[1,-1,3,-1,-1],"loss_changes":[1.3708267E-1,0E0,1.0379046E-1,0E0,0E0],"parents":[2147483647,0,0,2,2],"right_children":[2,-1,4,-1,-1],"split_conditions":[4.576923E-1,1.7192073E-2,4.9746856E-1,-2.4832912E-2,5.0680535E-3],"split_indices":[2,0,4,0,0],"split_type":[0,0,0,0,0],"sum_hessian":[4.874532E0,1.7357099E0,3.1388226E0,1.4846607E0,1.6541617E0],"tree_param":{"num_deleted":"0","num_feature":"5","num_nodes":"5","size_leaf_vector":"1"}},{"base_weights":[-2.3191965E-3,-1.2274691E-1,1.5639627E-2,1.01048E-2,-3.0470436E-2],"categories":[],"categories_nodes":[],"categories_segments":[],"categories_sizes":[],"default_left":[0,0,0,0,0],"id":105,"left_children":[1,3,-1,-1,-1],"loss_changes":[1.3122034E-1,1.8930304E-1,0E0,0E0,0E0],"parents":[2147483647,0,0,1,1],"right_children":[2,4,-1,-1,-1],"split_conditions":[2.2661553E-1,2.073223E-1,1.5639627E-2,1.01048E-2,-3.0470436E-2],"split_indices":[3,3,0,0,0],"split_type":[0,0,0,0,0],"sum_hessian":[4.8608723E0,2.8926525E0,1.96822E0,1.4966004E0,1.3960521E0],"tree_param":{"num_deleted":"0","num_feature":"5","num_nodes":"5","size_leaf_vector":"1"}},{"base_weights":[-2.9279438E-3,1.6506398E-2,-1.1332644E-1,-2.2909543E-2,6.101312E-3],"categories":[],"categories_nodes":[],"categories_segments":[],"categories_sizes":[],"default_left":[0,0,0,0,0],"id":106,"left_children":[1,-1,3,-1,-1],"loss_changes":[1.2706085E-1,0E0,9.710201E-2,0E0,0E0],"parents":[2147483647,0,0,2,2],"right_children":[2,-1,4,-1,-1],"split_conditions":[4.576923E-1,1.6506398E-2,5E-1,-2.2909543E-2,6.101312E-3],"split_indices":[2,0,2,0,0],"split_type":[0,0,0,0,0],"sum_hessian":[4.842468E0,1.7239662E0,3.1185014E0,1.6853082E0,1.4331933E0],"tree_param":{"num_deleted":"0","num_feature":"5","num_nodes":"5","size_leaf_vector":"1"}},{"base_weights":[-2.7036592E-3,-1.5629913E-1,1.2182065E-1,1.4331593E-2,-3.8255725E-2,-7.985686E-3,3.0043071E-2],"categories":[],"categories_nodes":[],"categories_segments":[],"categories_sizes":[],"default_left":[0,0,0,0,0,0,0],"id":107,"left_children":[1,3,5,-1,-1,-1,-1],"loss_changes":[1.3051778E-1,2.6142636E-1,1.6018324E-1,0E0,0E0,0E0,0E0],"parents":[2147483647,0,0,1,1,2,2],"right_children":[2,4,6,-1,-1,-1,-1],"split_conditions":[2.1213204E-1,5.058824E-1,5.252336E-1,1.4331593E-2,-3.8255725E-2,-7.985686E-3,3.0043071E-2],"split_indices":[3,1,1,0,0,0,0],"split_type":[0,0,0,0,0,0,0],"sum_hessian":[4.828462E0,2.047629E0,2.7808332E0,1.0387198E0,1.0089092E0,1.5657573E0,1.2150761E0],"tree_param":{"num_deleted":"0","num_feature":"5","num_nodes":"7","size_leaf_vector":"1"}},{"base_weights":[-2.7856657E-3,8.897899E-2,-2.0693406E-2,2.1698885E-1,-1.0953332E-2,4.7668178E-2,-1.3357866E-2],"categories":[],"categories_nodes":[],"categories_segments":[],"categories_sizes":[],"default_left":[0,0,0,0,0,0,0],"id":108,"left_children":[1,3,-1,5,-1,-1,-1],"loss_changes":[1.2710254E-1,1.4325176E-1,0E0,3.5446167E-1,0E0,0E0,0E0],"parents":[2147483647,0,0,1,1,3,3],"right_children":[2,4,-1,6,-1,-1,-1],"split_conditions":[5.525E-1,4.8268908E-1,-2.0693406E-2,5.019608E-1,-1.0953332E-2,4.7668178E-2,-1.3357866E-2],"split_indices":[1,2,0,4,0,0,0],"split_type":[0,0,0,0,0,0,0],"sum_hessian":[4.8018584E0,3.7019696E0,1.0998889E0,2.1940625E0,1.5079072E0,1.0537349E0,1.1403277E0],"tree_param":{"num_deleted":"0","num_feature":"5","num_nodes":"7","size_leaf_vector":"1"}},{"base_weights":[-1.9743145E-3,-1.00752994E-1,1.9324753E-2,1.3594677E-2,-2.946871E-2],"categories":[],"categories_nodes":[],"categories_segments":[],"categories_sizes":[],"default_left":[0,0,0,0,0],"id":109,"left_children":[1,3,-1,-1,-1],"loss_changes":[1.3073961E-1,2.4611464E-1,0E0,0E0,0E0],"parents":[2147483647,0,0,1,1],"right_children":[2,4,-1,-1,-1],"split_conditions":[5.301659E-1,5.0166667E-1,1.9324753E-2,1.3594677E-2,-2.946871E-2],"split_indices":[4,1,0,0,0],"split_type":[0,0,0,0,0],"sum_hessian":[4.770108E0,3.488763E0,1.2813452E0,1.7058052E0,1.7829579E0],"tree_param":{"num_deleted":"0","num_feature":"5","num_nodes":"5","size_leaf_vector":"1"}},{"base_weights":[-1.201935E-3,1.6640475E-2,-1.1179536E-1,-2.4486022E-2,5.677334E-3],"categories":[],"categories_nodes":[],"categories_segments":[],"categories_sizes":[],"default_left":[0,0,0,0,0],"id":110,"left_children":[1,-1,3,-1,-1],"loss_changes":[1.2522674E-1,0E0,1.0505154E-1,0E0,0E0],"parents":[2147483647,0,0,2,2],"right_children":[2,-1,4,-1,-1],"split_conditions":[4.576923E-1,1.6640475E-2,4.9746856E-1,-2.4486022E-2,5.677334E-3],"split_indices":[2,0,4,0,0],"split_type":[0,0,0,0,0],"sum_hessian":[4.7521763E0,1.688526E0,3.0636504E0,1.4592011E0,1.6044493E0],"tree_param":{"num_deleted":"0","num_feature":"5","num_nodes":"5","size_leaf_vector":"1"}},{"base_weights":[-1.4727863E-3,8.8879846E-2,-2.018637E-2,2.1124652E-1,-1.0270151E-2,4.6272077E-2,-1.2824197E-2],"categories":[],"categories_nodes":[],"categories_segments":[],"categories_sizes":[],"default_left":[0,0,0,0,0,0,0],"id":111,"left_children":[1,3,-1,5,-1,-1,-1],"loss_changes":[1.2184958E-1,1.307007E-1,0E0,3.295079E-1,0E0,0E0,0E0],"parents":[2147483647,0,0,1,1,3,3],"right_children":[2,4,-1,6,-1,-1,-1],"split_conditions":[5.525E-1,4.8268908E-1,-2.018637E-2,5.019608E-1,-1.0270151E-2,4.6272077E-2,-1.2824197E-2],"split_indices":[1,2,0,4,0,0,0],"split_type":[0,0,0,0,0,0,0],"sum_hessian":[4.738918E0,3.6497703E0,1.0891476E0,2.1645708E0,1.4851995E0,1.0349462E0,1.1296246E0],"tree_param":{"num_deleted":"0","num_feature":"5","num_nodes":"7","size_leaf_vector":"1"}},{"base_weights":[-7.290724E-4,-9.610035E-2,1.8507367E-2,1.1296215E-2,-3.004149E-2],"categories":[],"categories_nodes":[],"categories_segments":[],"categories_sizes":[],"default_left":[0,0,0,0,0],"id":112,"left_children":[1,3,-1,-1,-1],"loss_changes":[1.1894252E-1,2.2318155E-1,0E0,0E0,0E0],"parents":[2147483647,0,0,1,1],"right_children":[2,4,-1,-1,-1],"split_conditions":[5.301659E-1,5.058824E-1,1.8507367E-2,1.1296215E-2,-3.004149E-2],"split_indices":[4,1,0,0,0],"split_type":[0,0,0,0,0],"sum_hessian":[4.708548E0,3.430486E0,1.2780621E0,1.9165326E0,1.5139534E0],"tree_param":{"num_deleted":"0","num_feature":"5","num_nodes":"5","size_leaf_vector":"1"}},{"base_weights":[-7.2178856E-4,-1.5077931E-2,1.1995467E-1,-8.277769E-3,3.003837E-2],"categories":[],"categories_nodes":[],"categories_segments":[],"categories_sizes":[],"default_left":[0,0,0,0,0],"id":113,"left_children":[1,-1,3,-1,-1],"loss_changes":[1.2115473E-1,0E0,1.6063213E-1,0E0,0E0],"parents":[2147483647,0,0,2,2],"right_children":[2,-1,4,-1,-1],"split_conditions":[2.1213204E-1,-1.5077931E-2,5.252336E-1,-8.277769E-3,3.003837E-2],"split_indices":[3,0,1,0,0],"split_type":[0,0,0,0,0],"sum_hessian":[4.691723E0,1.9800899E0,2.7116327E0,1.5317531E0,1.1798797E0],"tree_param":{"num_deleted":"0","num_feature":"5","num_nodes":"5","size_leaf_vector":"1"}},{"base_weights":[5.458487E-4,9.1196336E-2,-2.0093096E-2,2.1067923E-1,-9.691267E-3,4.452213E-2,-1.1234737E-2],"categories":[],"categories_nodes":[],"categories_segments":[],"categories_sizes":[],"default_left":[0,0,0,0,0,0,0],"id":114,"left_children":[1,3,-1,5,-1,-1,-1],